  DATE: 2018-03-30 CONTRIBUTOR: Xiaowang Zhou xzhou@sandia.gov and Lucas Hale lucas.hale@nist.gov CITATION: X. W. Zhou, R. A. Johnson, H. N. G. Wadley, Phys. Rev. B, 69, 144113(2004)
  Generated from Zhou04_create_v2.f
  Fixes precision issues with older version
    4 Nb Mo Ta W              
 2000  0.8454588780072717E-01 2000  0.3199268520872213E-02  0.6395337773223553E+01
   41     92.906         4.0421    fcc     
  0.0000000000000000E+00 -0.3752697147826911E-01 -0.7486244324825586E-01 -0.1120069135332771E+00 -0.1489608805566549E+00
 -0.1857248425417066E+00 -0.2222992977117544E+00 -0.2586847442901132E+00 -0.2948816805001058E+00 -0.3308906045650510E+00
 -0.3667120147082641E+00 -0.4023464091530706E+00 -0.4377942861227861E+00 -0.4730561438407306E+00 -0.5081324805302216E+00
 -0.5430237944145815E+00 -0.5777305837171278E+00 -0.6122533466611784E+00 -0.6465925814700553E+00 -0.6807487863670767E+00
 -0.7147224595755621E+00 -0.7485140993188293E+00 -0.7821242038201990E+00 -0.8155532713029894E+00 -0.8488017999905204E+00
 -0.8818702881061125E+00 -0.9147592338730832E+00 -0.9474691355147531E+00 -0.9800004912544389E+00 -0.1012353799315463E+01
 -0.1044529557921142E+01 -0.1076528265294796E+01 -0.1108350419659746E+01 -0.1139996519239309E+01 -0.1171467062256806E+01
 -0.1202762546935553E+01 -0.1233883471498874E+01 -0.1264830334170086E+01 -0.1295603633172507E+01 -0.1326203866729458E+01
 -0.1356631533064258E+01 -0.1386887130400225E+01 -0.1416971156960680E+01 -0.1446884110968940E+01 -0.1476626490648327E+01
 -0.1506198794222158E+01 -0.1535601519913754E+01 -0.1564835165946433E+01 -0.1593900230543514E+01 -0.1622797211928317E+01
 -0.1651526608324162E+01 -0.1680088917954367E+01 -0.1708484639042252E+01 -0.1736714269811136E+01 -0.1764778308484338E+01
 -0.1792677253285177E+01 -0.1820411602436972E+01 -0.1847981854163045E+01 -0.1875388506686711E+01 -0.1902632058231293E+01
 -0.1929713007020108E+01 -0.1956631851276477E+01 -0.1983389089223716E+01 -0.2009985219085148E+01 -0.2036420739084091E+01
 -0.2062696147443863E+01 -0.2088811942387784E+01 -0.2114768622139175E+01 -0.2140566684921353E+01 -0.2166206628957637E+01
 -0.2191688952471348E+01 -0.2217014153685804E+01 -0.2242182730824325E+01 -0.2267195182110231E+01 -0.2292052005766839E+01
 -0.2316753700017469E+01 -0.2341300763085441E+01 -0.2365693693194075E+01 -0.2389932988566689E+01 -0.2414019147426602E+01
 -0.2437952667997134E+01 -0.2461734048501604E+01 -0.2485363787163332E+01 -0.2508842382205634E+01 -0.2532170331851834E+01
 -0.2555348134325248E+01 -0.2578376287849196E+01 -0.2601255290646998E+01 -0.2623985640941974E+01 -0.2646567836957440E+01
 -0.2669002376916718E+01 -0.2691289759043127E+01 -0.2713430481559986E+01 -0.2735425042690613E+01 -0.2757273940658329E+01
 -0.2778977673686452E+01 -0.2800536739998302E+01 -0.2821951637817197E+01 -0.2843222865366458E+01 -0.2864350920869403E+01
 -0.2885336302549354E+01 -0.2906179508629627E+01 -0.2926881037333542E+01 -0.2947441386884418E+01 -0.2967861055505575E+01
 -0.2988140541420333E+01 -0.3008280342852009E+01 -0.3028280958023924E+01 -0.3048142885159397E+01 -0.3067866622481747E+01
 -0.3087452668214294E+01 -0.3106901520580355E+01 -0.3126213677803252E+01 -0.3145389638106302E+01 -0.3164429899712826E+01
 -0.3183334960846143E+01 -0.3202105319729572E+01 -0.3220741474586431E+01 -0.3239243923640041E+01 -0.3257613165113721E+01
 -0.3275849697230788E+01 -0.3293954018214565E+01 -0.3311926626288369E+01 -0.3329768019675519E+01 -0.3347478696599335E+01
 -0.3365059155283137E+01 -0.3382509893950242E+01 -0.3399831410823970E+01 -0.3417024204127642E+01 -0.3434088772084577E+01
 -0.3451025612918093E+01 -0.3467835224851509E+01 -0.3484518106108145E+01 -0.3501074754911320E+01 -0.3517505669484353E+01
 -0.3533811348050564E+01 -0.3549992288833272E+01 -0.3566048990055795E+01 -0.3581981949941456E+01 -0.3597791666713570E+01
 -0.3613478638595458E+01 -0.3629043363810439E+01 -0.3644486340581832E+01 -0.3659808067132957E+01 -0.3675009041687133E+01
 -0.3690089762467680E+01 -0.3705050727697916E+01 -0.3719892435601160E+01 -0.3734615384400731E+01 -0.3749220072319950E+01
 -0.3763706997582136E+01 -0.3778076658410607E+01 -0.3792329553028683E+01 -0.3806466179659684E+01 -0.3820487036526927E+01
 -0.3834392621853734E+01 -0.3848183433863423E+01 -0.3861859970779313E+01 -0.3875422730824722E+01 -0.3888872212222973E+01
 -0.3902208913197381E+01 -0.3915433331971267E+01 -0.3928545966767952E+01 -0.3941547315810753E+01 -0.3954437877322990E+01
 -0.3967218149527981E+01 -0.3979888630649048E+01 -0.3992449818909508E+01 -0.4004902212532681E+01 -0.4017246309741886E+01
 -0.4029482608760444E+01 -0.4041611607811672E+01 -0.4053633805118888E+01 -0.4065549698905416E+01 -0.4077359787394571E+01
 -0.4089064568809674E+01 -0.4100664541374043E+01 -0.4112160203311000E+01 -0.4123552052843861E+01 -0.4134840588195948E+01
 -0.4146026307590578E+01 -0.4157109709251071E+01 -0.4168091291400747E+01 -0.4178971552262926E+01 -0.4189750990060924E+01
 -0.4200430103018062E+01 -0.4211009389357661E+01 -0.4221489347303039E+01 -0.4231870475077514E+01 -0.4242153270904407E+01
 -0.4252338233007036E+01 -0.4262425859608721E+01 -0.4272416648932780E+01 -0.4282311099202534E+01 -0.4292109708641301E+01
 -0.4301812975472402E+01 -0.4311421397919154E+01 -0.4320935474204878E+01 -0.4330355702552892E+01 -0.4339682581186517E+01
 -0.4348916608329069E+01 -0.4358058282203870E+01 -0.4367108101034240E+01 -0.4376066563043495E+01 -0.4384934166454956E+01
 -0.4393711409491944E+01 -0.4402398790377774E+01 -0.4410996807335770E+01 -0.4419505958589249E+01 -0.4427926742361528E+01
 -0.4436259656875931E+01 -0.4444505200355774E+01 -0.4452663871024377E+01 -0.4460736167105059E+01 -0.4468722586821141E+01
 -0.4476623628395940E+01 -0.4484439790052775E+01 -0.4492171570014967E+01 -0.4499819466505834E+01 -0.4507383977748698E+01
 -0.4514865601966874E+01 -0.4522264837383684E+01 -0.4529582182222446E+01 -0.4536818134706481E+01 -0.4543973193059107E+01
 -0.4551047855503643E+01 -0.4558042620263408E+01 -0.4564957985561722E+01 -0.4571794449621905E+01 -0.4578552510667274E+01
 -0.4585232666921150E+01 -0.4591835416606853E+01 -0.4598361257947699E+01 -0.4604810689167010E+01 -0.4611184208488107E+01
 -0.4617482314134305E+01 -0.4623705504328925E+01 -0.4629854277295286E+01 -0.4635929131256709E+01 -0.4641930564436512E+01
 -0.4647859075058012E+01 -0.4653715161344532E+01 -0.4659499321519390E+01 -0.4665212053805904E+01 -0.4670853856427394E+01
 -0.4676425227607180E+01 -0.4681926665568581E+01 -0.4687358668534914E+01 -0.4692721734729502E+01 -0.4698016362375662E+01
 -0.4703243049696713E+01 -0.4708402294915976E+01 -0.4713494596256768E+01 -0.4718520451942410E+01 -0.4723480360196220E+01
 -0.4728374819241520E+01 -0.4733204327301626E+01 -0.4737969382599856E+01 -0.4742670483359535E+01 -0.4747308127803978E+01
 -0.4751882814156505E+01 -0.4756395040640435E+01 -0.4760845305479088E+01 -0.4765234106895784E+01 -0.4769561943113839E+01
 -0.4773829312356575E+01 -0.4778036712847312E+01 -0.4782184642809368E+01 -0.4786273600466061E+01 -0.4790304084040712E+01
 -0.4794276591756640E+01 -0.4798191621837163E+01 -0.4802049672505602E+01 -0.4805851241985275E+01 -0.4809596828499503E+01
 -0.4813286930271602E+01 -0.4816922045524894E+01 -0.4820502672482698E+01 -0.4824029309368332E+01 -0.4827502454405117E+01
 -0.4830922605816371E+01 -0.4834290261825412E+01 -0.4837605920655562E+01 -0.4840870080530139E+01 -0.4844083239672462E+01
 -0.4847245896305851E+01 -0.4850358548653624E+01 -0.4853421694939101E+01 -0.4856435833385601E+01 -0.4859401462216445E+01
 -0.4862319079654950E+01 -0.4865189183924436E+01 -0.4868012273248222E+01 -0.4870788845849627E+01 -0.4873519399951971E+01
 -0.4876204433778573E+01 -0.4878844445552753E+01 -0.4881439933497830E+01 -0.4883991395837120E+01 -0.4886499330793948E+01
 -0.4888964236591629E+01 -0.4891386611453485E+01 -0.4893766953602831E+01 -0.4896105761262992E+01 -0.4898403532657282E+01
 -0.4900660766009023E+01 -0.4902877959541534E+01 -0.4905055611478135E+01 -0.4907194220042144E+01 -0.4909294283456879E+01
 -0.4911356299945662E+01 -0.4913380767731812E+01 -0.4915368185038646E+01 -0.4917319050089485E+01 -0.4919233861107647E+01
 -0.4921113116316453E+01 -0.4922957313939221E+01 -0.4924766952199271E+01 -0.4926542529319922E+01 -0.4928284543524492E+01
 -0.4929993187786709E+01 -0.4931669180677294E+01 -0.4933312345753477E+01 -0.4934922769782202E+01 -0.4936500539530412E+01
 -0.4938045741765047E+01 -0.4939558463253049E+01 -0.4941038790761362E+01 -0.4942486811056926E+01 -0.4943902610906684E+01
 -0.4945286277077578E+01 -0.4946637896336551E+01 -0.4947957555450541E+01 -0.4949245341186495E+01 -0.4950501340311353E+01
 -0.4951725639592056E+01 -0.4952918325795548E+01 -0.4954079485688769E+01 -0.4955209206038663E+01 -0.4956307573612171E+01
 -0.4957374675176234E+01 -0.4958410597497795E+01 -0.4959415427343796E+01 -0.4960389251481178E+01 -0.4961332156676886E+01
 -0.4962244229697859E+01 -0.4963125557311041E+01 -0.4963976226283372E+01 -0.4964796323381796E+01 -0.4965585935373253E+01
 -0.4966345149024686E+01 -0.4967074051103038E+01 -0.4967772728375249E+01 -0.4968441267608263E+01 -0.4969079755569020E+01
 -0.4969688279024465E+01 -0.4970266924741537E+01 -0.4970815779487180E+01 -0.4971334930028333E+01 -0.4971824463131942E+01
 -0.4972284465564947E+01 -0.4972715024094290E+01 -0.4973116225486913E+01 -0.4973488156509758E+01 -0.4973830903929767E+01
 -0.4974144554513883E+01 -0.4974429195029047E+01 -0.4974684912242202E+01 -0.4974911792920288E+01 -0.4975109923830249E+01
 -0.4975279391739026E+01 -0.4975420283413561E+01 -0.4975532685620797E+01 -0.4975616685127674E+01 -0.4975672368701136E+01
 -0.4975699823108124E+01 -0.4975699135115582E+01 -0.4975670391490450E+01 -0.4975613678999668E+01 -0.4975529084410183E+01
 -0.4975416694488933E+01 -0.4975276596002862E+01 -0.4975108875718910E+01 -0.4974913620404022E+01 -0.4974690916825138E+01
 -0.4974440851749200E+01 -0.4974163511943152E+01 -0.4973858984173933E+01 -0.4973527355208486E+01 -0.4973168711813755E+01
 -0.4972783140756680E+01 -0.4972370728804203E+01 -0.4971931562723267E+01 -0.4971465729280813E+01 -0.4970973315243783E+01
 -0.4970454407379121E+01 -0.4969909092453767E+01 -0.4969337457234664E+01 -0.4968739588488752E+01 -0.4968115572982976E+01
 -0.4967465497484276E+01 -0.4966789448759595E+01 -0.4966087513575874E+01 -0.4965359778700057E+01 -0.4964606330899082E+01
 -0.4963827256939896E+01 -0.4963022643589438E+01 -0.4962192577614650E+01 -0.4961337145782475E+01 -0.4960456434859856E+01
 -0.4959550531613733E+01 -0.4958619522811047E+01 -0.4957663495218743E+01 -0.4956682535603763E+01 -0.4955676730733046E+01
 -0.4954646167373537E+01 -0.4953590932292176E+01 -0.4952511112255905E+01 -0.4951406794031668E+01 -0.4950278064386405E+01
 -0.4949125010087059E+01 -0.4947947717900573E+01 -0.4946746274593886E+01 -0.4945520766933942E+01 -0.4944271281687684E+01
 -0.4942997905622052E+01 -0.4941700725503989E+01 -0.4940379828100438E+01 -0.4939035300178338E+01 -0.4937667228504634E+01
 -0.4936275699846267E+01 -0.4934860800970179E+01 -0.4933422761576762E+01 -0.4931961120668648E+01 -0.4930475981979452E+01
 -0.4928967411627098E+01 -0.4927435475393493E+01 -0.4925880238726982E+01 -0.4924301766744800E+01 -0.4922700124235498E+01
 -0.4921075375661341E+01 -0.4919427585160684E+01 -0.4917756816550332E+01 -0.4916063133327868E+01 -0.4914346598673964E+01
 -0.4912607275454667E+01 -0.4910845226223675E+01 -0.4909060513224569E+01 -0.4907253198393049E+01 -0.4905423343359129E+01
 -0.4903571009449330E+01 -0.4901696257688827E+01 -0.4899799148803606E+01 -0.4897879743222581E+01 -0.4895938101079691E+01
 -0.4893974282215996E+01 -0.4891988346181726E+01 -0.4889980352238338E+01 -0.4887950359360536E+01 -0.4885898426238279E+01
 -0.4883824611278772E+01 -0.4881728972608435E+01 -0.4879611568074860E+01 -0.4877472455248738E+01 -0.4875311691425788E+01
 -0.4873129333628646E+01 -0.4870925438608755E+01 -0.4868700062848231E+01 -0.4866453262561709E+01 -0.4864185093698178E+01
 -0.4861895611942795E+01 -0.4859584872718688E+01 -0.4857252931188741E+01 -0.4854899842257355E+01 -0.4852525660572211E+01
 -0.4850130440525994E+01 -0.4847714236258128E+01 -0.4845277101656470E+01 -0.4842819090359012E+01 -0.4840340255755550E+01
 -0.4837840650989347E+01 -0.4835320328958783E+01 -0.4832779342318985E+01 -0.4830217743483443E+01 -0.4827635584625624E+01
 -0.4825032917680550E+01 -0.4822409794346386E+01 -0.4819766266085990E+01 -0.4817102384128477E+01 -0.4814418199470747E+01
 -0.4811713762879006E+01 -0.4808989124890283E+01 -0.4806244335813921E+01 -0.4803479445733064E+01 -0.4800694504506128E+01
 -0.4797889561768257E+01 -0.4795064666932778E+01 -0.4792219869192625E+01 -0.4789355217521767E+01 -0.4786470760676619E+01
 -0.4783566547197436E+01 -0.4780642625409705E+01 -0.4777699043425514E+01 -0.4774735849144920E+01 -0.4771753090257301E+01
 -0.4768750814242690E+01 -0.4765729068373116E+01 -0.4762687899713913E+01 -0.4759627355125030E+01 -0.4756547481262332E+01
 -0.4753448324578880E+01 -0.4750329931326210E+01 -0.4747192347555598E+01 -0.4744035619119312E+01 -0.4740859791671860E+01
 -0.4737664910671223E+01 -0.4734451021380072E+01 -0.4731218168866999E+01 -0.4727966398007699E+01 -0.4724695753486187E+01
 -0.4721406279795962E+01 -0.4718098021241197E+01 -0.4714771021937899E+01 -0.4711425325815066E+01 -0.4708060976615835E+01
 -0.4704678017898614E+01 -0.4701276493038219E+01 -0.4697856445226991E+01 -0.4694417917475906E+01 -0.4690960952615671E+01
 -0.4687485593297828E+01 -0.4683991881995833E+01 -0.4680479861006131E+01 -0.4676949572449225E+01 -0.4673401058270733E+01
 -0.4669834360242442E+01 -0.4666249519963346E+01 -0.4662646578860684E+01 -0.4659025578190967E+01 -0.4655386559040990E+01
 -0.4651729562328846E+01 -0.4648054628804930E+01 -0.4644361799052931E+01 -0.4640651113490819E+01 -0.4636922612371824E+01
 -0.4633176335785406E+01 -0.4629412323658227E+01 -0.4625630615755095E+01 -0.4621831251679922E+01 -0.4618014270876667E+01
 -0.4614179712630263E+01 -0.4610327616067551E+01 -0.4606458020158199E+01 -0.4602570963715611E+01 -0.4598666485397847E+01
 -0.4594744623708507E+01 -0.4590805416997628E+01 -0.4586848903462579E+01 -0.4582875121148930E+01 -0.4578884107951330E+01
 -0.4574875901614370E+01 -0.4570850539733446E+01 -0.4566808059755615E+01 -0.4562748498980429E+01 -0.4558671894560792E+01
 -0.4554578283503784E+01 -0.4550467702671493E+01 -0.4546340188781834E+01 -0.4542195778409366E+01 -0.4538034507986110E+01
 -0.4533856413802333E+01 -0.4529661532007368E+01 -0.4525449898610393E+01 -0.4521221549481221E+01 -0.4516976520351077E+01
 -0.4512714846813382E+01 -0.4508436564324509E+01 -0.4504141708204555E+01 -0.4499830313638100E+01 -0.4495502415674953E+01
 -0.4491158049230902E+01 -0.4486797249088458E+01 -0.4482420049897588E+01 -0.4478026486176445E+01 -0.4473616592312094E+01
 -0.4469190402561241E+01 -0.4464747951050930E+01 -0.4460289271779270E+01 -0.4455814398616130E+01 -0.4451323365303847E+01
 -0.4446816205457909E+01 -0.4442292952567658E+01 -0.4437753639996966E+01 -0.4433198300984918E+01 -0.4428626968646489E+01
 -0.4424039675973208E+01 -0.4419436455833837E+01 -0.4414817340975016E+01 -0.4410182364021930E+01 -0.4405531557478959E+01
 -0.4400864953730323E+01 -0.4396182585040724E+01 -0.4391484483555991E+01 -0.4386770681303704E+01 -0.4382041210193827E+01
 -0.4377296102019341E+01 -0.4372535388456852E+01 -0.4367759101067211E+01 -0.4362967271296133E+01 -0.4358159930474801E+01
 -0.4353337109820460E+01 -0.4348498840437032E+01 -0.4343645153315699E+01 -0.4338776079335505E+01 -0.4333891649263932E+01
 -0.4328991893757489E+01 -0.4324076843362293E+01 -0.4319146528514641E+01 -0.4314200979541580E+01 -0.4309240226661478E+01
 -0.4304264299984586E+01 -0.4299273229513597E+01 -0.4294267045144204E+01 -0.4289245776665645E+01 -0.4284209453761265E+01
 -0.4279158106009045E+01 -0.4274091762882157E+01 -0.4269010453749492E+01 -0.4263914207876198E+01 -0.4258803054424209E+01
 -0.4253677022452771E+01 -0.4248536140918966E+01 -0.4243380438678233E+01 -0.4238209944484881E+01 -0.4233024686992609E+01
 -0.4227824694755000E+01 -0.4222609996226050E+01 -0.4217380619760648E+01 -0.4212136593615087E+01 -0.4206877945947562E+01
 -0.4201604704818656E+01 -0.4196316898191832E+01 -0.4191014553933922E+01 -0.4185697699815607E+01 -0.4180366363511901E+01
 -0.4175020572602617E+01 -0.4169660354572857E+01 -0.4164285736813470E+01 -0.4158896746621526E+01 -0.4153493411200777E+01
 -0.4148075757662120E+01 -0.4142643813024058E+01 -0.4137197604213151E+01 -0.4131737158064470E+01 -0.4126262501322049E+01
 -0.4120773660639333E+01 -0.4115270662579613E+01 -0.4109753533616480E+01 -0.4104222300134256E+01 -0.4098676988428426E+01
 -0.4093117624706079E+01 -0.4087544235086336E+01 -0.4081956845600767E+01 -0.4076355482193835E+01 -0.4070740170723298E+01
 -0.4065110936960643E+01 -0.4059467806591489E+01 -0.4053810805216018E+01 -0.4048139958349369E+01 -0.4042455291422057E+01
 -0.4036756829780374E+01 -0.4031044598686800E+01 -0.4025318623320395E+01 -0.4019578928777197E+01 -0.4013825540070636E+01
 -0.4008058482131900E+01 -0.4002277779810345E+01 -0.3996483457873881E+01 -0.3990675541009356E+01 -0.3984854053822934E+01
 -0.3979019020840488E+01 -0.3973170466507972E+01 -0.3967308415191799E+01 -0.3961432891179214E+01 -0.3955543918678671E+01
 -0.3949641521820195E+01 -0.3943725724655761E+01 -0.3937796551159645E+01 -0.3931854025228800E+01 -0.3925898170683207E+01
 -0.3919929011266245E+01 -0.3913946570645030E+01 -0.3907950872410791E+01 -0.3901941940079205E+01 -0.3895919797090751E+01
 -0.3889884466811070E+01 -0.3883835972531286E+01 -0.3877774337468375E+01 -0.3871699584765496E+01 -0.3865611737492325E+01
 -0.3859510818645401E+01 -0.3853396851148460E+01 -0.3847269857852763E+01 -0.3841129861537437E+01 -0.3834976884909795E+01
 -0.3828810950605670E+01 -0.3822632081189733E+01 -0.3816440299155830E+01 -0.3810235626927287E+01 -0.3804018086857247E+01
 -0.3797787701228970E+01 -0.3791544492256167E+01 -0.3785288482083296E+01 -0.3779019692785892E+01 -0.3772738146370865E+01
 -0.3766443864776810E+01 -0.3760136869874324E+01 -0.3753817183466295E+01 -0.3747484827288218E+01 -0.3741139823008495E+01
 -0.3734782192228722E+01 -0.3728411956484007E+01 -0.3722029137243249E+01 -0.3715633755909444E+01 -0.3709225833819967E+01
 -0.3702805392246875E+01 -0.3696372452397187E+01 -0.3689927035413175E+01 -0.3683469162372652E+01 -0.3676998854289251E+01
 -0.3670516132112713E+01 -0.3664021016729165E+01 -0.3657513528961403E+01 -0.3650993689569167E+01 -0.3644461519249411E+01
 -0.3637917038636595E+01 -0.3631360268302939E+01 -0.3624791228758708E+01 -0.3618209940452469E+01 -0.3611616423771381E+01
 -0.3605010699041435E+01 -0.3598392786527739E+01 -0.3591762706434774E+01 -0.3585120478906660E+01 -0.3578466124027412E+01
 -0.3571799661821204E+01 -0.3565121112252625E+01 -0.3558430495226934E+01 -0.3551727830590319E+01 -0.3545013138130150E+01
 -0.3538286437575223E+01 -0.3531547748596028E+01 -0.3524797090804976E+01 -0.3518034483756669E+01 -0.3511259946948129E+01
 -0.3504473499819054E+01 -0.3497675161752059E+01 -0.3490864952072920E+01 -0.3484042890050806E+01 -0.3477208994898533E+01
 -0.3470363285772792E+01 -0.3463505781774393E+01 -0.3456636501948493E+01 -0.3449755465284837E+01 -0.3442862690717991E+01
 -0.3435958197127572E+01 -0.3429042003338475E+01 -0.3422114128121112E+01 -0.3415174590191629E+01 -0.3408223408212147E+01
 -0.3401260600790969E+01 -0.3394286186482822E+01 -0.3387300183789068E+01 -0.3380302611157937E+01 -0.3373293486984735E+01
 -0.3366272829612075E+01 -0.3359240657330087E+01 -0.3352196988376642E+01 -0.3345141840937566E+01 -0.3338075233146848E+01
 -0.3330997183086866E+01 -0.3323907708788588E+01 -0.3316806828231792E+01 -0.3309694559345272E+01 -0.3302570920007049E+01
 -0.3295435928044572E+01 -0.3288289601234939E+01 -0.3281131957305089E+01 -0.3273963013932018E+01 -0.3266782788742971E+01
 -0.3259591299315652E+01 -0.3252388563178425E+01 -0.3245174597810514E+01 -0.3237949420642201E+01 -0.3230713049055024E+01
 -0.3223465500381975E+01 -0.3216206791907699E+01 -0.3208936940868681E+01 -0.3201655964453451E+01 -0.3194363879802768E+01
 -0.3187060704009817E+01 -0.3179746454120397E+01 -0.3172421147133113E+01 -0.3165084799999571E+01 -0.3157737429624547E+01
 -0.3150379052866194E+01 -0.3143009686536224E+01 -0.3135629347400084E+01 -0.3128238052177148E+01 -0.3120835817540902E+01
 -0.3113422660119114E+01 -0.3105998596494030E+01 -0.3098563643202547E+01 -0.3091117816736397E+01 -0.3083661133542312E+01
 -0.3076193610022218E+01 -0.3068715262533412E+01 -0.3061226107388716E+01 -0.3053726160856677E+01 -0.3046215439161727E+01
 -0.3038693958484362E+01 -0.3031161734961308E+01 -0.3023618784685703E+01 -0.3016065123707253E+01 -0.3008500768032408E+01
 -0.3000925733624541E+01 -0.2993340036404100E+01 -0.2985743692248779E+01 -0.2978136716993692E+01 -0.2970519126431526E+01
 -0.2962890936312724E+01 -0.2955252162345619E+01 -0.2947602820196630E+01 -0.2939942925490400E+01 -0.2932272493809965E+01
 -0.2924591540696921E+01 -0.2916900081651570E+01 -0.2909198132133092E+01 -0.2901485707559688E+01 -0.2893762823308755E+01
 -0.2886029494717027E+01 -0.2878285737080737E+01 -0.2870531565655777E+01 -0.2862766995657834E+01 -0.2854992042262572E+01
 -0.2847206720605751E+01 -0.2839411045783406E+01 -0.2831605032851984E+01 -0.2823788696828497E+01 -0.2815962052690673E+01
 -0.2808125115377106E+01 -0.2800277899787393E+01 -0.2792420420782298E+01 -0.2784552693183888E+01 -0.2776674731775681E+01
 -0.2768786551302789E+01 -0.2760888166472065E+01 -0.2752979591952248E+01 -0.2745060842374100E+01 -0.2737131932330557E+01
 -0.2729192876376859E+01 -0.2721243689030704E+01 -0.2713284384772377E+01 -0.2705314978044896E+01 -0.2697335483254148E+01
 -0.2689345914769027E+01 -0.2681346286921570E+01 -0.2673336614007102E+01 -0.2665316910284364E+01 -0.2657287189975646E+01
 -0.2649247467266928E+01 -0.2641197756308017E+01 -0.2633138071212668E+01 -0.2625068426058731E+01 -0.2616988834888275E+01
 -0.2608899311707718E+01 -0.2600799870487964E+01 -0.2592690525164532E+01 -0.2584571289637683E+01 -0.2576442177772545E+01
 -0.2568303203399254E+01 -0.2560154380313070E+01 -0.2551995722274513E+01 -0.2543827243009477E+01 -0.2535648956209374E+01
 -0.2527460875531241E+01 -0.2519263014597877E+01 -0.2511055386997966E+01 -0.2502838006286195E+01 -0.2494610885983376E+01
 -0.2486374039576582E+01 -0.2478127480519254E+01 -0.2469871222231325E+01 -0.2461605278099349E+01 -0.2453329661476611E+01
 -0.2445044385683254E+01 -0.2436749464006395E+01 -0.2428444909700242E+01 -0.2420130735986214E+01 -0.2411806956053054E+01
 -0.2403473583056960E+01 -0.2395130630121680E+01 -0.2386778110338643E+01 -0.2378416036767069E+01 -0.2370044422434086E+01
 -0.2361663280334842E+01 -0.2353272623432611E+01 -0.2344872464658929E+01 -0.2336462816913681E+01 -0.2328043693065220E+01
 -0.2319615105950497E+01 -0.2311177068375141E+01 -0.2302729593113595E+01 -0.2294272692909211E+01 -0.2285806380474368E+01
 -0.2277330668490576E+01 -0.2268845569608587E+01 -0.2260351096448501E+01 -0.2251847261599872E+01 -0.2243334077621826E+01
 -0.2234811557043148E+01 -0.2226279712362404E+01 -0.2217738556048041E+01 -0.2209188100538491E+01 -0.2200628358242277E+01
 -0.2192059341538120E+01 -0.2183481062775033E+01 -0.2174893534272434E+01 -0.2166296768320245E+01 -0.2157690777178993E+01
 -0.2149075573079912E+01 -0.2140451168225049E+01 -0.2131817574787356E+01 -0.2123174804910799E+01 -0.2114522870710450E+01
 -0.2105861784272594E+01 -0.2097191557654821E+01 -0.2088512202886130E+01 -0.2079823731967027E+01 -0.2071126156869618E+01
 -0.2062419489537707E+01 -0.2053703741886894E+01 -0.2044978925804682E+01 -0.2036245053150549E+01 -0.2027502135756069E+01
 -0.2018750185424983E+01 -0.2009989213933317E+01 -0.2001219233029460E+01 -0.1992440254434265E+01 -0.1983652289841137E+01
 -0.1974855350916133E+01 -0.1966049449298047E+01 -0.1957234596598510E+01 -0.1948410804402078E+01 -0.1939578084266316E+01
 -0.1930736447721902E+01 -0.1921885906272710E+01 -0.1913026471395902E+01 -0.1904158154542017E+01 -0.1895280967135060E+01
 -0.1886394920572589E+01 -0.1877500026225812E+01 -0.1868596295439666E+01 -0.1859683739532906E+01 -0.1850762369798196E+01
 -0.1841832197502195E+01 -0.1832893233885646E+01 -0.1823945490163451E+01 -0.1814988977524771E+01 -0.1806023707133104E+01
 -0.1797049690126374E+01 -0.1788066937617010E+01 -0.1779075460692035E+01 -0.1770075270413154E+01 -0.1761066377816818E+01
 -0.1752048793914341E+01 -0.1743022529691950E+01 -0.1733987596110889E+01 -0.1724944004107486E+01 -0.1715891764593249E+01
 -0.1706830888454940E+01 -0.1697761386554653E+01 -0.1688683269729905E+01 -0.1679596548793706E+01 -0.1670501234534642E+01
 -0.1661397337716964E+01 -0.1652284869080652E+01 -0.1643163839341508E+01 -0.1634034259191219E+01 -0.1624896139297458E+01
 -0.1615749490303941E+01 -0.1606594322830514E+01 -0.1597430647473230E+01 -0.1588258474804426E+01 -0.1579077815372799E+01
 -0.1569888679703484E+01 -0.1560691078298124E+01 -0.1551485021634957E+01 -0.1542270520168881E+01 -0.1533047584331536E+01
 -0.1523816224531374E+01 -0.1514576451153739E+01 -0.1505328274560928E+01 -0.1496071705092289E+01 -0.1486806753064272E+01
 -0.1477533428770513E+01 -0.1468251742481905E+01 -0.1458961704446667E+01 -0.1449663324890424E+01 -0.1440356614016274E+01
 -0.1431041582004858E+01 -0.1421718239014437E+01 -0.1412386595180959E+01 -0.1403046660618134E+01 -0.1393698445417499E+01
 -0.1384341959648486E+01 -0.1374977213358508E+01 -0.1365604216573008E+01 -0.1356222979295547E+01 -0.1346833511507855E+01
 -0.1337435823169917E+01 -0.1328029924220028E+01 -0.1318615824574872E+01 -0.1309193534129581E+01 -0.1299763062757811E+01
 -0.1290324420311797E+01 -0.1280877616622436E+01 -0.1271422661499348E+01 -0.1261959564730934E+01 -0.1252488336084449E+01
 -0.1243008985306075E+01 -0.1233521522120974E+01 -0.1224025956233363E+01 -0.1214522297326576E+01 -0.1205010555063126E+01
 -0.1195490739084774E+01 -0.1185962859012595E+01 -0.1176426924447033E+01 -0.1166882944967978E+01 -0.1157330930134814E+01
 -0.1147770889486501E+01 -0.1138202832541626E+01 -0.1128626768798464E+01 -0.1119042707735046E+01 -0.1109450658809230E+01
 -0.1099850631458734E+01 -0.1090242635101242E+01 -0.1080626679134422E+01 -0.1071002772936013E+01 -0.1061370925863884E+01
 -0.1051731147256084E+01 -0.1042083446430910E+01 -0.1032427832686975E+01 -0.1022764315303251E+01 -0.1013092903539138E+01
 -0.1003413606634534E+01 -0.9937264338098662E+00 -0.9840313942661884E+00 -0.9743284971852060E+00 -0.9646177517293498E+00
 -0.9548991670418415E+00 -0.9451727522467346E+00 -0.9354385164489857E+00 -0.9256964687345072E+00 -0.9159466181702268E+00
 -0.9061889738041442E+00 -0.8964235446653875E+00 -0.8866503397642724E+00 -0.8768693680923486E+00 -0.8670806386224791E+00
 -0.8572841603088724E+00 -0.8474799420871471E+00 -0.8376679928743986E+00 -0.8278483215692330E+00 -0.8180209370518432E+00
 -0.8081858481840550E+00 -0.7983430638093778E+00 -0.7884925927530667E+00 -0.7786344438221692E+00 -0.7687686258055977E+00
 -0.7588951474741532E+00 -0.7490140175806105E+00 -0.7391252448597505E+00 -0.7292288380284255E+00 -0.7193248057855999E+00
 -0.7094131568124197E+00 -0.6994938997722523E+00 -0.6895670433107424E+00 -0.6796325960558753E+00 -0.6696905666180052E+00
 -0.6597409635899337E+00 -0.6497837955469427E+00 -0.6398190710468521E+00 -0.6298467986300798E+00 -0.6198669868196731E+00
 -0.6098796441213834E+00 -0.5998847790237004E+00 -0.5898823999979044E+00 -0.5798725154981251E+00 -0.5698551339613819E+00
 -0.5598302638076456E+00 -0.5497979134398721E+00 -0.5397580912440699E+00 -0.5297108055893390E+00 -0.5196560648279168E+00
 -0.5095938772952435E+00 -0.4995242513099833E+00 -0.4894471951741095E+00 -0.4793627171729211E+00 -0.4692708255751086E+00
 -0.4591715286327925E+00 -0.4490648345815815E+00 -0.4389507516406110E+00 -0.4288292880125975E+00 -0.4187004518838797E+00
 -0.4085642514244701E+00 -0.3984206947881052E+00 -0.3882697901122866E+00 -0.3781115455183245E+00 -0.3679459691113937E+00
 -0.3577730689805718E+00 -0.3475928531988988E+00 -0.3374053298234047E+00 -0.3272105068951669E+00 -0.3170083924393464E+00
 -0.3067989944652564E+00 -0.2965823209663752E+00 -0.2863583799204116E+00 -0.2761271792893552E+00 -0.2658887270194976E+00
 -0.2556430310415064E+00 -0.2453900992704418E+00 -0.2351299396058191E+00 -0.2248625599316450E+00 -0.2145879681164714E+00
 -0.2043061720134245E+00 -0.1940171794602594E+00 -0.1837209982794002E+00 -0.1734176362779828E+00 -0.1631071012478968E+00
 -0.1527894009658360E+00 -0.1424645431933321E+00 -0.1321325356767988E+00 -0.1217933861475816E+00 -0.1114471023219962E+00
 -0.1010936919013614E+00 -0.9073316257206006E-01 -0.8036552200556266E-01 -0.6999077785847928E-01 -0.5960893777260576E-01
 -0.4922000937494535E-01 -0.3882400027777896E-01 -0.2842091807867616E-01 -0.1801077036055937E-01 -0.7593564691732868E-02
  0.2830691374075527E-02  0.1326199029766155E-01  0.2370032455433135E-01  0.3414568663382297E-01  0.4459806904030687E-01
  0.5505746429231481E-01  0.6552386492271484E-01  0.7599726347866878E-01  0.8647765252159055E-01  0.9696502462710525E-01
  0.1074593723850239E+00  0.1179606883992799E+00  0.1284689652879143E+00  0.1389841956830197E+00  0.1495063722307120E+00
  0.1600354875910814E+00  0.1705715344381661E+00  0.1811145054599074E+00  0.1916643933581127E+00  0.2022211908484153E+00
  0.2127848906602385E+00  0.2233554855367601E+00  0.2339329682348684E+00  0.2445173315251344E+00  0.2551085681917634E+00
  0.2657066710325683E+00  0.2763116328589191E+00  0.2869234464957240E+00  0.2975421047813778E+00  0.3081676005677282E+00
  0.3187999267200470E+00  0.3294390761169863E+00  0.3400850416505378E+00  0.3507378162260096E+00  0.3613973927619830E+00
  0.3720637641902692E+00  0.3827369234558929E+00  0.3934168635170366E+00  0.4041035773450147E+00  0.4147970579242395E+00
  0.4254972982521811E+00  0.4362042913393328E+00  0.4469180302091832E+00  0.4576385078981685E+00  0.4683657174556489E+00
  0.4790996519438704E+00  0.4898403044379276E+00  0.5005876680257337E+00  0.5113417358079867E+00  0.5221025008981218E+00
  0.5328699564222954E+00  0.5436440955193471E+00  0.5544249113407609E+00  0.5652123970506275E+00  0.5760065458256198E+00
  0.5868073508549531E+00  0.5976148053403676E+00  0.6084289024960599E+00  0.6192496355486966E+00  0.6300769977373381E+00
  0.6409109823134310E+00  0.6517515825407717E+00  0.6625987916954680E+00  0.6734526030659130E+00  0.6843130099527357E+00
  0.6951800056688010E+00  0.7060535835391495E+00  0.7169337369009693E+00  0.7278204591035786E+00  0.7387137435083792E+00
  0.7496135834888313E+00  0.7605199724304113E+00  0.7714329037306092E+00  0.7823523707988698E+00  0.7932783670565480E+00
  0.8042108859369288E+00  0.8151499208851457E+00  0.8260954653581821E+00  0.8370475128248163E+00  0.8480060567656111E+00
  0.8589710906728765E+00  0.8699426080506245E+00  0.8809206024145692E+00  0.8919050672920583E+00  0.9028959962220793E+00
  0.9138933827552014E+00  0.9248972204535659E+00  0.9359075028908431E+00  0.9469242236522052E+00  0.9579473763343044E+00
  0.9689769545452249E+00  0.9800129519044771E+00  0.9910553620429481E+00  0.1002104178602889E+01  0.1013159395237866E+01
  0.1024221005612750E+01  0.1035289003403682E+01  0.1046363382298027E+01  0.1057444135994373E+01  0.1068531258202496E+01
  0.1079624742643310E+01  0.1090724583048857E+01  0.1101830773162279E+01  0.1112943306737777E+01  0.1124062177540597E+01
  0.1135187379346994E+01  0.1146318905944212E+01  0.1157456751130433E+01  0.1168600908714782E+01  0.1179751372517272E+01
  0.1190908136368795E+01  0.1202071194111082E+01  0.1213240539596672E+01  0.1224416166688910E+01  0.1235598069261885E+01
  0.1246786241200433E+01  0.1257980676400085E+01  0.1269181368767057E+01  0.1280388312218217E+01  0.1291601500681056E+01
  0.1302820928093668E+01  0.1314046588404713E+01  0.1325278475573400E+01  0.1336516583569457E+01  0.1347760906373103E+01
  0.1359011437975018E+01  0.1370268172376328E+01  0.1381531103588571E+01  0.1392800225633664E+01  0.1404075532543907E+01
  0.1415357018361901E+01  0.1426644677140583E+01  0.1437938502943165E+01  0.1449238489843116E+01  0.1460544631924138E+01
  0.1471856923280139E+01  0.1483175358015203E+01  0.1494499930243580E+01  0.1505830634089643E+01  0.1517167463687869E+01
  0.1528510413182816E+01  0.1539859476729102E+01  0.1551214648491374E+01  0.1562575922644279E+01  0.1573943293372440E+01
  0.1585316754870451E+01  0.1596696301342825E+01  0.1608081927003984E+01  0.1619473626078233E+01  0.1630871392799729E+01
  0.1642275221412470E+01  0.1653685106170261E+01  0.1665101041336686E+01  0.1676523021185100E+01  0.1687951039998581E+01
  0.1699385092069930E+01  0.1710825171701635E+01  0.1722271273205852E+01  0.1733723390904362E+01  0.1745181519128586E+01
  0.1756645652219519E+01  0.1768115784527746E+01  0.1779591910413387E+01  0.1791074024246089E+01  0.1802562120404991E+01
  0.1814056193278730E+01  0.1825556237265376E+01  0.1837062246772443E+01  0.1848574216216853E+01  0.1860092140024902E+01
  0.1871616012632262E+01  0.1883145828483941E+01  0.1894681582034259E+01  0.1906223267746833E+01  0.1917770880094565E+01
  0.1929324413559585E+01  0.1940883862633263E+01  0.1952449221816175E+01  0.1964020485618073E+01  0.1975597648557873E+01
  0.1987180705163630E+01  0.1998769649972523E+01  0.2010364477530806E+01  0.2021965182393828E+01  0.2033571759125967E+01
  0.2045184202300648E+01  0.2056802506500298E+01  0.2068426666316323E+01  0.2080056676349103E+01  0.2091692531207953E+01
  0.2103334225511118E+01  0.2114981753885727E+01  0.2126635110967808E+01  0.2138294291402233E+01  0.2149959289842708E+01
  0.2161630100951772E+01  0.2173306719400736E+01  0.2184989139869704E+01  0.2196677357047510E+01  0.2208371365631749E+01
  0.2220071160328692E+01  0.2231776735853331E+01  0.2243488086929313E+01  0.2255205208288935E+01  0.2266928094673118E+01
  0.2278656740831403E+01  0.2290391141521912E+01  0.2302131291511330E+01  0.2313877185574898E+01  0.2325628818496372E+01
  0.2337386185068032E+01  0.2349149280090623E+01  0.2360918098373381E+01  0.2372692634733967E+01  0.2384472883998480E+01
  0.2396258841001424E+01  0.2408050500585690E+01  0.2419847857602543E+01  0.2431650906911586E+01  0.2443459643380753E+01
  0.2455274061886290E+01  0.2467094157312733E+01  0.2478919924552881E+01  0.2490751358507801E+01  0.2502588454086762E+01
  0.2514431206207280E+01  0.2526279609795033E+01  0.2538133659783902E+01  0.2549993351115892E+01  0.2561858678741170E+01
  0.2573729637618010E+01  0.2585606222712782E+01  0.2597488428999940E+01  0.2609376251461994E+01  0.2621269685089499E+01
  0.2633168724881032E+01  0.2645073365843178E+01  0.2656983602990507E+01  0.2668899431345560E+01  0.2680820845938812E+01
  0.2692747841808685E+01  0.2704680414001514E+01  0.2716618557571519E+01  0.2728562267580804E+01  0.2740511539099321E+01
  0.2752466367204876E+01  0.2764426746983092E+01  0.2776392673527386E+01  0.2788364141938972E+01  0.2800341147326835E+01
  0.2812323684807700E+01  0.2824311749506034E+01  0.2836305336554010E+01  0.2848304441091511E+01  0.2860309058266086E+01
  0.2872319183232948E+01  0.2884334811154973E+01  0.2896355937202640E+01  0.2908382556554050E+01  0.2920414664394900E+01
  0.2932452255918449E+01  0.2944495326325528E+01  0.2956543870824507E+01  0.2968597884631267E+01  0.2980657362969216E+01
  0.2992722301069235E+01  0.3004792694169676E+01  0.3016868537516363E+01  0.3028949826362547E+01  0.3041036555968902E+01
  0.3053128721603515E+01  0.3065226318541850E+01  0.3077329342066754E+01  0.3089437787468420E+01  0.3101551650044384E+01
  0.3113670925099503E+01  0.3125795607945938E+01  0.3137925693903147E+01  0.3150061178297852E+01  0.3162202056464036E+01
  0.3174348323742920E+01  0.3186499975482948E+01  0.3198657007039781E+01  0.3210819413776254E+01  0.3222987191062398E+01
  0.3235160334275382E+01  0.3247338838799541E+01  0.3259522700026318E+01  0.3271711913354284E+01  0.3283906474189091E+01
  0.3296106377943476E+01  0.3308311620037248E+01  0.3320522195897252E+01  0.3332738100957375E+01  0.3344959330658522E+01
  0.3357185880448585E+01  0.3369417745782453E+01  0.3381654922121997E+01  0.3393897404936026E+01  0.3406145189700286E+01
  0.3418398271897461E+01  0.3430656647017136E+01  0.3442920310555786E+01  0.3455189258016780E+01  0.3467463484910333E+01
  0.3479742986753512E+01  0.3492027759070225E+01  0.3504317797391196E+01  0.3516613097253938E+01  0.3528913654202769E+01
  0.3541219463788771E+01  0.3553530521569793E+01  0.3565846823110419E+01  0.3578168363981953E+01  0.3590495139762439E+01
  0.3602827146036588E+01  0.3615164378395826E+01  0.3627506832438223E+01  0.3639854503768525E+01  0.3652207387998102E+01
  0.3664565480744957E+01  0.3676928777633715E+01  0.3689297274295573E+01  0.3701670966368332E+01  0.3714049849496353E+01
  0.3726433919330558E+01  0.3738823171528407E+01  0.3751217601753873E+01  0.3763617205677456E+01  0.3776021978976144E+01
  0.3788431917333416E+01  0.3800847016439218E+01  0.3813267271989951E+01  0.3825692679688448E+01  0.3838123235243976E+01
  0.3850558934372226E+01  0.3862999772795281E+01  0.3875445746241591E+01  0.3887896850446012E+01  0.3900353081149734E+01
  0.3912814434100301E+01  0.3925280905051579E+01  0.3937752489763762E+01  0.3950229184003348E+01  0.3962710983543108E+01
  0.3975197884162117E+01  0.3987689881645689E+01  0.4000186971785397E+01  0.4012689150379050E+01  0.4025196413230685E+01
  0.4037708756150541E+01  0.4050226174955054E+01  0.4062748665466842E+01  0.4075276223514701E+01  0.4087808844933582E+01
  0.4100346525564567E+01  0.4112889261254881E+01  0.4125437047857867E+01  0.4137989881232961E+01  0.4150547757245702E+01
  0.4163110671767704E+01  0.4175678620676645E+01  0.4188251599856247E+01  0.4200829605196299E+01  0.4213412632592581E+01
  0.4226000677946917E+01  0.4238593737167114E+01  0.4251191806166982E+01  0.4263794880866284E+01  0.4276402957190771E+01
  0.4289016031072145E+01  0.4301634098448023E+01  0.4314257155261966E+01  0.4326885197463447E+01  0.4339518221007831E+01
  0.4352156221856379E+01  0.4364799195976228E+01  0.4377447139340373E+01  0.4390100047927665E+01  0.4402757917722798E+01
  0.4415420744716282E+01  0.4428088524904450E+01  0.4440761254289428E+01  0.4453438928879143E+01  0.4466121544687301E+01
  0.4478809097733362E+01  0.4491501584042553E+01  0.4504198999645822E+01  0.4516901340579875E+01  0.4529608602887123E+01
  0.4542320782615670E+01  0.4555037875819342E+01  0.4567759878557611E+01  0.4580486786895668E+01  0.4593218596904314E+01
  0.4605955304660013E+01  0.4618696906244891E+01  0.4631443397746652E+01  0.4644194775258658E+01  0.4656951034879828E+01
  0.4669712172714696E+01  0.4682478184873374E+01  0.4695249067471519E+01  0.4708024816630371E+01  0.4720805428476683E+01
  0.4733590899142754E+01  0.4746381224766408E+01  0.4759176401490962E+01  0.4771976425465239E+01  0.4784781292843562E+01
  0.4797590999785688E+01  0.4810405542456880E+01  0.4823224917027823E+01  0.4836049119674661E+01  0.4848878146578962E+01
  0.4861711993927697E+01  0.4874550657913272E+01  0.4887394134733475E+01  0.4900242420591463E+01  0.4913095511695802E+01
  0.4925953404260384E+01  0.4938816094504482E+01  0.4951683578652694E+01  0.4964555852934947E+01  0.4977432913586501E+01
  0.4990314756847910E+01  0.5003201378965039E+01  0.5016092776189027E+01  0.5028988944776293E+01  0.5041889880988526E+01
  0.5054795581092660E+01  0.5067706041360891E+01  0.5080621258070630E+01  0.5093541227504515E+01  0.5106465945950395E+01
  0.5119395409701337E+01  0.5132329615055571E+01  0.5145268558316530E+01  0.5158212235792808E+01  0.5171160643798165E+01
  0.5184113778651485E+01  0.5197071636676837E+01  0.5210034214203374E+01  0.5223001507565384E+01  0.5235973513102273E+01
  0.5248950227158525E+01  0.5261931646083728E+01  0.5274917766232545E+01  0.5287908583964680E+01  0.5300904095644939E+01
  0.5313904297643126E+01  0.5326909186334122E+01  0.5339918758097817E+01  0.5352933009319096E+01  0.5365951936387896E+01
  0.5378975535699110E+01  0.5392003803652631E+01  0.5405036736653337E+01  0.5418074331111053E+01  0.5431116583440584E+01
  0.5444163490061661E+01  0.5457215047398959E+01  0.5470271251882081E+01  0.5483332099945535E+01  0.5496397588028769E+01
  0.5509467712576083E+01  0.5522542470036692E+01  0.5535621856864692E+01  0.5548705869519035E+01  0.5561794504463526E+01
  0.5574887758166843E+01  0.5587985627102474E+01  0.5601088107748762E+01  0.5614195196588851E+01  0.5627306890110705E+01
  0.5640423184807093E+01  0.5653544077175559E+01  0.5666669563718446E+01  0.5679799640942861E+01  0.5692934305360681E+01
  0.5706073553488537E+01  0.5719217381847781E+01  0.5732365786964541E+01  0.5745518765369632E+01  0.5758676313598610E+01
  0.5771838428191733E+01  0.5785005105693942E+01  0.5798176342654902E+01  0.5811352135628908E+01  0.5824532481174971E+01
  0.5837717375856736E+01  0.5850906816242515E+01  0.5864100798905253E+01  0.5877299320422529E+01  0.5890502377376558E+01
  0.5903709966354151E+01  0.5916922083946753E+01  0.5930138726750386E+01  0.5943359891365662E+01  0.5956585574397783E+01
  0.5969815772456513E+01  0.5983050482156193E+01  0.5996289700115689E+01  0.6009533422958444E+01  0.6022781647312407E+01
  0.6036034369810084E+01  0.6049291587088471E+01  0.6062553295789088E+01  0.6075819492557956E+01  0.6089090174045581E+01
  0.6102365336906955E+01  0.6115644977801543E+01  0.6128929093393290E+01  0.6142217680350578E+01  0.6155510735346235E+01
  0.6168808255057558E+01  0.6182110236166245E+01  0.6195416675358426E+01  0.6208727569324656E+01  0.6222042914759879E+01
  0.6235362708363462E+01  0.6248686946839132E+01  0.6262015626895000E+01  0.6275348745243569E+01  0.6288686298601693E+01
  0.6302028283690579E+01  0.6315374697235788E+01  0.6328725535967207E+01  0.6342080796619073E+01  0.6355440475929929E+01
  0.6368804570642637E+01  0.6382173077504366E+01  0.6395545993266577E+01  0.6408923314685025E+01  0.6422305038519741E+01
  0.6435691161535044E+01  0.6449081680499496E+01  0.6462476592185923E+01  0.6475875893371412E+01  0.6489279580837258E+01
  0.6502687651369035E+01  0.6516100101756512E+01  0.6529516928793660E+01  0.6542938129278697E+01  0.6556363700014007E+01
  0.6569793637806182E+01  0.6583227939466002E+01  0.6596666601808405E+01  0.6610109621652533E+01  0.6623556995821635E+01
  0.6637008721143166E+01  0.6650464794448688E+01  0.6663925212573915E+01  0.6677389972358705E+01  0.6690859070647008E+01
  0.6704332504286905E+01  0.6717810270130578E+01  0.6731292365034310E+01  0.6744778785858478E+01  0.6758269529467529E+01
  0.6771764592729996E+01  0.6785263972518475E+01  0.6798767665709622E+01  0.6812275669184154E+01  0.6825787979826820E+01
  0.6839304594526401E+01  0.6852825510175731E+01  0.6866350723671647E+01  0.6879880231915004E+01  0.6893414031810670E+01
  0.6906952120267498E+01  0.6920494494198357E+01  0.6934041150520066E+01  0.6947592086153461E+01  0.6961147298023319E+01
  0.6974706783058381E+01  0.6988270538191363E+01  0.7001838560358904E+01  0.7015410846501601E+01  0.7028987393563965E+01
  0.7042568198494460E+01  0.7056153258245450E+01  0.7069742569773203E+01  0.7083336130037903E+01  0.7096933936003635E+01
  0.7110535984638360E+01  0.7124142272913924E+01  0.7137752797806057E+01  0.7151367556294348E+01  0.7164986545362249E+01
  0.7178609761997065E+01  0.7192237203189944E+01  0.7205868865935886E+01  0.7219504747233706E+01  0.7233144844086049E+01
  0.7246789153499394E+01  0.7260437672484008E+01  0.7274090398053974E+01  0.7287747327227162E+01  0.7301408457025255E+01
  0.7315073784473692E+01  0.7328743306601702E+01  0.7342417020442290E+01  0.7356094923032198E+01  0.7369777011411954E+01
  0.7383463282625816E+01  0.7397153733721780E+01  0.7410848361751593E+01  0.7424547163770716E+01  0.7438250136838345E+01
  0.7451957278017375E+01  0.7465668584374416E+01  0.7479384052979773E+01  0.7493103680907461E+01  0.7506827465235168E+01
  0.7520555403044259E+01  0.7534287491419788E+01  0.7548023727450462E+01  0.7561764108228662E+01  0.7575508630850411E+01
  0.7589257292415375E+01  0.7603010090026888E+01  0.7616767020791884E+01  0.7630528081820950E+01  0.7644293270228276E+01
  0.7658062583131685E+01  0.7671836017652576E+01  0.7685613570915991E+01  0.7699395240050536E+01  0.7713181022188416E+01
  0.7726970914465427E+01  0.7740764914020911E+01  0.7754563017997811E+01  0.7768365223542607E+01  0.7782171527805364E+01
  0.7795981927939670E+01  0.7809796421102667E+01  0.7823615004455039E+01  0.7837437675160987E+01  0.7851264430388241E+01
  0.7865095267308059E+01  0.7878930183095191E+01  0.7892769174927919E+01  0.7906612239988001E+01  0.7920459375460693E+01
  0.7934310578534750E+01  0.7948165846402382E+01  0.7962025176259295E+01  0.7975888565304656E+01  0.7989756010741097E+01
  0.8003627509774690E+01  0.8017503059614976E+01  0.8031382657474932E+01  0.8045266300570965E+01  0.8059153986122915E+01
  0.8073045711354055E+01  0.8086941473491072E+01  0.8100841269764061E+01  0.8114745097406526E+01  0.8128652953655370E+01
  0.8142564835750907E+01  0.8156480740936800E+01  0.8170400666460139E+01  0.8184324609571371E+01  0.8198252567524296E+01
  0.8212184537576107E+01  0.8226120516987340E+01  0.8240060503021882E+01  0.8254004492946979E+01  0.8267952484033200E+01
  0.8281904473554473E+01  0.8295860458788017E+01  0.8309820437014421E+01  0.8323784405517548E+01  0.8337752361584599E+01
  0.8351724302506071E+01  0.8365700225575761E+01  0.8379680128090762E+01  0.8393664007351449E+01  0.8407651860661490E+01
  0.8421643685327817E+01  0.8435639478660645E+01  0.8449639237973443E+01  0.8463642960582940E+01  0.8477650643809122E+01
  0.8491662284975233E+01  0.8505677881407747E+01  0.8519697430436356E+01  0.8533720929394027E+01  0.8547748375616910E+01
  0.8561779766444410E+01  0.8575815099219124E+01  0.8589854371286844E+01  0.8603897579996602E+01  0.8617944722700592E+01
  0.8631995796754229E+01  0.8646050799516090E+01  0.8660109728347935E+01  0.8674172580614727E+01  0.8688239353684555E+01
  0.8702310044928707E+01  0.8716384651721604E+01  0.8730463171440839E+01  0.8744545601467154E+01  0.8758631939184408E+01
  0.8772722181979617E+01  0.8786816327242928E+01  0.8800914372367604E+01  0.8815016314750027E+01  0.8829122151789715E+01
  0.8843231880889272E+01  0.8857345499454413E+01  0.8871463004893958E+01  0.8885584394619803E+01  0.8899709666046959E+01
  0.8913838816593493E+01  0.8927971843680563E+01  0.8942108744732405E+01  0.8956249517176312E+01  0.8970394158442637E+01
  0.8984542665964778E+01  0.8998695037179228E+01  0.9012851269525472E+01  0.9027011360446069E+01  0.9041175307386608E+01
  0.9055343107795689E+01  0.9069514759124978E+01  0.9083690258829108E+01  0.9097869604365767E+01  0.9112052793195623E+01
  0.9126239822782381E+01  0.9140430690592730E+01  0.9154625394096335E+01  0.9168823930765871E+01  0.9183026298076994E+01
  0.9197232493508331E+01  0.9211442514541490E+01  0.9225656358661050E+01  0.9239874023354536E+01  0.9254095506112455E+01
  0.9268320804428253E+01  0.9282549915798326E+01  0.9296782837722015E+01  0.9311019567701596E+01  0.9325260103242279E+01
  0.9339504441852220E+01  0.9353752581042460E+01  0.9368004518327011E+01  0.9382260251222730E+01  0.9396519777249464E+01
  0.9410783093929883E+01  0.9425050198789618E+01  0.9439321089357170E+01  0.9453595763163909E+01  0.9467874217744132E+01
  0.9482156450634969E+01  0.9496442459376469E+01  0.9510732241511517E+01  0.9525025794585872E+01  0.9539323116148163E+01
  0.9553624203749864E+01  0.9567929054945299E+01  0.9582237667291636E+01  0.9596550038348887E+01  0.9610866165679912E+01
  0.9625186046850381E+01  0.9639509679428800E+01  0.9653837060986495E+01  0.9668168189097621E+01  0.9682503061339121E+01
  0.9696841675290766E+01  0.9711184028535113E+01  0.9725530118657540E+01  0.9739879943246191E+01  0.9754233499892027E+01
  0.9768590786188767E+01  0.9782951799732917E+01  0.9797316538123775E+01  0.9811684998963381E+01  0.9826057179856576E+01
  0.9840433078410930E+01  0.9854812692236765E+01  0.9869196018947196E+01  0.9883583056158036E+01  0.9897973801487883E+01
  0.9912368252558048E+01  0.9926766406992563E+01  0.9941168262418241E+01  0.9955573816464558E+01  0.9969983066763749E+01
  0.9984396010950741E+01  0.9998812646663197E+01  0.1001323297154147E+02  0.1002765698322862E+02  0.1004208467937040E+02
  0.1005651605761524E+02  0.1007095111561430E+02  0.1008538985102139E+02  0.1009983226149302E+02  0.1011427834468836E+02
  0.1012872809826925E+02  0.1014318151990021E+02  0.1015763860724841E+02  0.1017209935798369E+02  0.1018656376977852E+02
  0.1020103184030805E+02  0.1021550356725006E+02  0.1022997894828495E+02  0.1024445798109580E+02  0.1025894066336827E+02
  0.1027342699279070E+02  0.1028791696705400E+02  0.1030241058385174E+02  0.1031690784088010E+02  0.1033140873583783E+02
  0.1034591326642635E+02  0.1036042143034962E+02  0.1037493322531424E+02  0.1038944864902937E+02  0.1040396769920677E+02
  0.1041849037356083E+02  0.1043301666980845E+02  0.1044754658566914E+02  0.1046208011886497E+02  0.1047661726712059E+02
  0.1049115802816323E+02  0.1050570239972264E+02  0.1052025037953114E+02  0.1053480196532361E+02  0.1054935715483748E+02
  0.1056391594581271E+02  0.1057847833599180E+02  0.1059304432311978E+02  0.1060761390494423E+02  0.1062218707921525E+02
  0.1063676384368544E+02  0.1065134419610995E+02  0.1066592813424641E+02  0.1068051565585499E+02  0.1069510675869835E+02
  0.1070970144054167E+02  0.1072429969915260E+02  0.1073890153230130E+02  0.1075350693776042E+02  0.1076811591330508E+02
  0.1183916147679860E+03  0.1183916147679860E+03  0.1183916147679860E+03  0.1183916147679860E+03  0.1183916147679860E+03
  0.1183916147679860E+03  0.1183916147679860E+03  0.1183916147679860E+03  0.1183916147679860E+03  0.1183916147679860E+03
  0.1183916147679860E+03  0.1183916147679860E+03  0.1183916147679860E+03  0.1183916147679860E+03  0.1183916147679860E+03
  0.1183916147679860E+03  0.1183916147679860E+03  0.1183916147679860E+03  0.1183916147679860E+03  0.1183916147679860E+03
  0.1183916147679860E+03  0.1183916147679860E+03  0.1183916147679860E+03  0.1183916147679860E+03  0.1183916147679860E+03
  0.1183916147679860E+03  0.1183916147679860E+03  0.1183916147679860E+03  0.1183916147679860E+03  0.1183916147679860E+03
  0.1183916147679860E+03  0.1183916147679860E+03  0.1183916147679860E+03  0.1183916147679860E+03  0.1183916147679860E+03
  0.1183916147679860E+03  0.1183916147679860E+03  0.1183916147679860E+03  0.1183916147679860E+03  0.1183916147679860E+03
  0.1183916147679860E+03  0.1183916147679860E+03  0.1183916147679860E+03  0.1183916147679860E+03  0.1183916147679860E+03
  0.1183916147679860E+03  0.1183916147679860E+03  0.1183916147679860E+03  0.1183916147679860E+03  0.1183916147679860E+03
  0.1183916147679860E+03  0.1183916147679860E+03  0.1183916147679860E+03  0.1183916147679860E+03  0.1183916147679860E+03
  0.1183916147679860E+03  0.1183916147679860E+03  0.1183916147679860E+03  0.1183916147679860E+03  0.1183916147679860E+03
  0.1183916147679860E+03  0.1183916147679860E+03  0.1183916147679860E+03  0.1183916147679860E+03  0.1183916147679860E+03
  0.1183916147679860E+03  0.1183916147679860E+03  0.1183916147679860E+03  0.1183916147679860E+03  0.1183916147679860E+03
  0.1183916147679860E+03  0.1183916147679860E+03  0.1183916147679860E+03  0.1183916147679860E+03  0.1183916147679860E+03
  0.1183916147679860E+03  0.1183916147679860E+03  0.1183916147679860E+03  0.1183916147679860E+03  0.1183916147679860E+03
  0.1183916147679860E+03  0.1183916147679860E+03  0.1183916147679860E+03  0.1183916147679860E+03  0.1183916147679860E+03
  0.1183916147679860E+03  0.1183916147679860E+03  0.1183916147679860E+03  0.1183916147679860E+03  0.1183916147679860E+03
  0.1183916147679860E+03  0.1183916147679860E+03  0.1183916147679860E+03  0.1183916147679860E+03  0.1183916147679860E+03
  0.1183916147679860E+03  0.1183916147679860E+03  0.1183916147679860E+03  0.1183916147679860E+03  0.1183916147679860E+03
  0.1183916147679860E+03  0.1183916147679860E+03  0.1183916147679860E+03  0.1183916147679860E+03  0.1183916147679860E+03
  0.1183916147679860E+03  0.1183916147679860E+03  0.1183916147679860E+03  0.1183916147679860E+03  0.1183916147679860E+03
  0.1183916147679860E+03  0.1183916147679860E+03  0.1183916147679860E+03  0.1183916147679860E+03  0.1183916147679860E+03
  0.1183916147679860E+03  0.1183916147679860E+03  0.1183916147679860E+03  0.1183916147679860E+03  0.1183916147679860E+03
  0.1183916147679860E+03  0.1183916147679860E+03  0.1183916147679860E+03  0.1183916147679860E+03  0.1183916147679860E+03
  0.1183916147679860E+03  0.1183916147679860E+03  0.1183916147679860E+03  0.1183916147679860E+03  0.1183916147679860E+03
  0.1183916147679860E+03  0.1183916147679860E+03  0.1183916147679860E+03  0.1183916147679860E+03  0.1183916147679860E+03
  0.1183916147679860E+03  0.1183916147679860E+03  0.1183916147679860E+03  0.1183916147679860E+03  0.1183916147679860E+03
  0.1183916147679860E+03  0.1183916147679860E+03  0.1183916147679860E+03  0.1183916147679860E+03  0.1183916147679860E+03
  0.1183916147679860E+03  0.1183916147679860E+03  0.1183916147679860E+03  0.1183916147679860E+03  0.1183916147679860E+03
  0.1183916147679860E+03  0.1183916147679860E+03  0.1183916147679860E+03  0.1183916147679860E+03  0.1183916147679860E+03
  0.1183916147679860E+03  0.1183916147679860E+03  0.1179664360997745E+03  0.1173737411922885E+03  0.1167840241424456E+03
  0.1161972699886928E+03  0.1156134638446484E+03  0.1150325908987233E+03  0.1144546364137464E+03  0.1138795857265896E+03
  0.1133074242477967E+03  0.1127381374612123E+03  0.1121717109236146E+03  0.1116081302643479E+03  0.1110473811849590E+03
  0.1104894494588336E+03  0.1099343209308357E+03  0.1093819815169489E+03  0.1088324172039182E+03  0.1082856140488951E+03
  0.1077415581790837E+03  0.1072002357913889E+03  0.1066616331520656E+03  0.1061257365963713E+03  0.1055925325282183E+03
  0.1050620074198297E+03  0.1045341478113953E+03  0.1040089403107309E+03  0.1034863715929383E+03  0.1029664284000669E+03
  0.1024490975407778E+03  0.1019343658900086E+03  0.1014222203886410E+03  0.1009126480431693E+03  0.1004056359253702E+03
  0.9990117117197572E+02  0.9939924098434614E+02  0.9889983262814552E+02  0.9840293343301865E+02  0.9790853079226973E+02
  0.9741661216254205E+02  0.9692716506350047E+02  0.9644017707751397E+02  0.9595563584934146E+02  0.9547352908581742E+02
  0.9499384455554089E+02  0.9451657008856448E+02  0.9404169357608608E+02  0.9356920297014116E+02  0.9309908628329764E+02
  0.9263133158835136E+02  0.9216592701802374E+02  0.9170286076466043E+02  0.9124212107993203E+02  0.9078369627453573E+02
  0.9032757471789907E+02  0.8987374483788456E+02  0.8942219512049638E+02  0.8897291410958795E+02  0.8852589040657145E+02
  0.8808111267012872E+02  0.8763856961592329E+02  0.8719825001631438E+02  0.8676014270007158E+02  0.8632423655209207E+02
  0.8589052051311802E+02  0.8545898357945646E+02  0.8502961480269973E+02  0.8460240328944816E+02  0.8417733820103302E+02
  0.8375440875324234E+02  0.8333360421604675E+02  0.8291491391332738E+02  0.8249832722260511E+02  0.8208383357477105E+02
  0.8167142245381811E+02  0.8126108339657470E+02  0.8085280599243886E+02  0.8044657988311421E+02  0.8004239476234736E+02
  0.7964024037566631E+02  0.7924010652012005E+02  0.7884198304402021E+02  0.7844585984668299E+02  0.7805172687817321E+02
  0.7765957413904928E+02  0.7726939168010951E+02  0.7688116960213945E+02  0.7649489805566122E+02  0.7611056724068320E+02
  0.7572816740645152E+02  0.7534768885120285E+02  0.7496912192191793E+02  0.7459245701407696E+02  0.7421768457141583E+02
  0.7384479508568360E+02  0.7347377909640132E+02  0.7310462719062207E+02  0.7273733000269206E+02  0.7237187821401301E+02
  0.7200826255280586E+02  0.7164647379387542E+02  0.7128650275837617E+02  0.7092834031357985E+02  0.7057197737264330E+02
  0.7021740489437808E+02  0.6986461388302115E+02  0.6951359538800668E+02  0.6916434050373860E+02  0.6881684036936522E+02
  0.6847108616855400E+02  0.6812706912926799E+02  0.6778478052354338E+02  0.6744421166726801E+02  0.6710535391996081E+02
  0.6676819868455310E+02  0.6643273740716990E+02  0.6609896157691331E+02  0.6576686272564650E+02  0.6543643242777874E+02
  0.6510766230005171E+02  0.6478054400132693E+02  0.6445506923237393E+02  0.6413122973565977E+02  0.6380901729513969E+02
  0.6348842373604845E+02  0.6316944092469294E+02  0.6285206076824606E+02  0.6253627521454113E+02  0.6222207625186772E+02
  0.6190945590876843E+02  0.6159840625383654E+02  0.6128891939551482E+02  0.6098098748189541E+02  0.6067460270052047E+02
  0.6036975727818403E+02  0.6006644348073484E+02  0.5976465361288007E+02  0.5946438001799004E+02  0.5916561507790415E+02
  0.5886835121273733E+02  0.5857258088068795E+02  0.5827829657784646E+02  0.5798549083800486E+02  0.5769415623246741E+02
  0.5740428536986218E+02  0.5711587089595339E+02  0.5682890549345490E+02  0.5654338188184465E+02  0.5625929281717986E+02
  0.5597663109191312E+02  0.5569538953470985E+02  0.5541556101026605E+02  0.5513713841912744E+02  0.5486011469750929E+02
  0.5458448281711721E+02  0.5431023578496882E+02  0.5403736664321641E+02  0.5376586846897031E+02  0.5349573437412327E+02
  0.5322695750517578E+02  0.5295953104306223E+02  0.5269344820297757E+02  0.5242870223420572E+02  0.5216528641994773E+02
  0.5190319407715181E+02  0.5164241855634361E+02  0.5138295324145746E+02  0.5112479154966856E+02  0.5086792693122605E+02
  0.5061235286928671E+02  0.5035806287974967E+02  0.5010505051109202E+02  0.4985330934420492E+02  0.4960283299223084E+02
  0.4935361510040163E+02  0.4910564934587707E+02  0.4885892943758468E+02  0.4861344911606001E+02  0.4836920215328775E+02
  0.4812618235254385E+02  0.4788438354823830E+02  0.4764379960575857E+02  0.4740442442131415E+02  0.4716625192178154E+02
  0.4692927606455029E+02  0.4669349083736957E+02  0.4645889025819584E+02  0.4622546837504077E+02  0.4599321926582051E+02
  0.4576213703820537E+02  0.4553221582947020E+02  0.4530344980634583E+02  0.4507583316487100E+02  0.4484936013024505E+02
  0.4462402495668145E+02  0.4439982192726213E+02  0.4417674535379228E+02  0.4395478957665604E+02  0.4373394896467311E+02
  0.4351421791495565E+02  0.4329559085276623E+02  0.4307806223137649E+02  0.4286162653192613E+02  0.4264627826328324E+02
  0.4243201196190481E+02  0.4221882219169803E+02  0.4200670354388256E+02  0.4179565063685320E+02  0.4158565811604338E+02
  0.4137672065378929E+02  0.4116883294919467E+02  0.4096198972799650E+02  0.4075618574243097E+02  0.4055141577110052E+02
  0.4034767461884118E+02  0.4014495711659096E+02  0.3994325812125862E+02  0.3974257251559310E+02  0.3954289520805387E+02
  0.3934422113268162E+02  0.3914654524896982E+02  0.3894986254173666E+02  0.3875416802099808E+02  0.3855945672184101E+02
  0.3836572370429737E+02  0.3817296405321888E+02  0.3798117287815219E+02  0.3779034531321496E+02  0.3760047651697238E+02
  0.3741156167231416E+02  0.3722359598633259E+02  0.3703657469020079E+02  0.3685049303905168E+02  0.3666534631185770E+02
  0.3648112981131106E+02  0.3629783886370435E+02  0.3611546881881223E+02  0.3593401504977329E+02  0.3575347295297276E+02
  0.3557383794792558E+02  0.3539510547716036E+02  0.3521727100610357E+02  0.3504033002296467E+02  0.3486427803862156E+02
  0.3468911058650658E+02  0.3451482322249342E+02  0.3434141152478423E+02  0.3416887109379741E+02  0.3399719755205607E+02
  0.3382638654407690E+02  0.3365643373625974E+02  0.3348733481677757E+02  0.3331908549546715E+02  0.3315168150372016E+02
  0.3298511859437493E+02  0.3281939254160867E+02  0.3265449914083018E+02  0.3249043420857335E+02  0.3232719358239090E+02
  0.3216477312074869E+02  0.3200316870292090E+02  0.3184237622888526E+02  0.3168239161921914E+02  0.3152321081499599E+02
  0.3136482977768242E+02  0.3120724448903567E+02  0.3105045095100175E+02  0.3089444518561400E+02  0.3073922323489197E+02
  0.3058478116074132E+02  0.3043111504485372E+02  0.3027822098860739E+02  0.3012609511296833E+02  0.2997473355839188E+02
  0.2982413248472467E+02  0.2967428807110735E+02  0.2952519651587756E+02  0.2937685403647355E+02  0.2922925686933813E+02
  0.2908240126982323E+02  0.2893628351209490E+02  0.2879089988903879E+02  0.2864624671216611E+02  0.2850232031151991E+02
  0.2835911703558219E+02  0.2821663325118116E+02  0.2807486534339897E+02  0.2793380971548015E+02  0.2779346278874027E+02
  0.2765382100247518E+02  0.2751488081387065E+02  0.2737663869791250E+02  0.2723909114729713E+02  0.2710223467234263E+02
  0.2696606580090014E+02  0.2683058107826582E+02  0.2669577706709320E+02  0.2656165034730591E+02  0.2642819751601102E+02
  0.2629541518741261E+02  0.2616329999272589E+02  0.2603184858009178E+02  0.2590105761449180E+02  0.2577092377766353E+02
  0.2564144376801635E+02  0.2551261430054777E+02  0.2538443210675996E+02  0.2525689393457694E+02  0.2512999654826201E+02
  0.2500373672833570E+02  0.2487811127149405E+02  0.2475311699052736E+02  0.2462875071423931E+02  0.2450500928736654E+02
  0.2438188957049856E+02  0.2425938843999812E+02  0.2413750278792197E+02  0.2401622952194198E+02  0.2389556556526671E+02
  0.2377550785656334E+02  0.2365605334988002E+02  0.2353719901456857E+02  0.2341894183520756E+02  0.2330127881152591E+02
  0.2318420695832665E+02  0.2306772330541127E+02  0.2295182489750431E+02  0.2283650879417840E+02  0.2272177206977969E+02
  0.2260761181335359E+02  0.2249402512857089E+02  0.2238100913365434E+02  0.2226856096130552E+02  0.2215667775863207E+02
  0.2204535668707532E+02  0.2193459492233826E+02  0.2182438965431397E+02  0.2171473808701418E+02  0.2160563743849845E+02
  0.2149708494080355E+02  0.2138907783987326E+02  0.2128161339548841E+02  0.2117468888119748E+02  0.2106830158424735E+02
  0.2096244880551451E+02  0.2085712785943656E+02  0.2075233607394407E+02  0.2064807079039282E+02  0.2054432936349633E+02
  0.2044110916125873E+02  0.2033840756490801E+02  0.2023622196882957E+02  0.2013454978050012E+02  0.2003338842042190E+02
  0.1993273532205723E+02  0.1983258793176338E+02  0.1973294370872785E+02  0.1963380012490383E+02  0.1953515466494608E+02
  0.1943700482614719E+02  0.1933934811837395E+02  0.1924218206400428E+02  0.1914550419786431E+02  0.1904931206716591E+02
  0.1895360323144435E+02  0.1885837526249652E+02  0.1876362574431918E+02  0.1866935227304780E+02  0.1857555245689545E+02
  0.1848222391609221E+02  0.1838936428282475E+02  0.1829697120117629E+02  0.1820504232706677E+02  0.1811357532819343E+02
  0.1802256788397163E+02  0.1793201768547595E+02  0.1784192243538165E+02  0.1775227984790636E+02  0.1766308764875206E+02
  0.1757434357504748E+02  0.1748604537529053E+02  0.1739819080929133E+02  0.1731077764811530E+02  0.1722380367402662E+02
  0.1713726668043197E+02  0.1705116447182454E+02  0.1696549486372832E+02  0.1688025568264273E+02  0.1679544476598740E+02
  0.1671105996204735E+02  0.1662709912991843E+02  0.1654356013945289E+02  0.1646044087120548E+02  0.1637773921637958E+02
  0.1629545307677371E+02  0.1621358036472837E+02  0.1613211900307295E+02  0.1605106692507317E+02  0.1597042207437851E+02
  0.1589018240497015E+02  0.1581034588110899E+02  0.1573091047728404E+02  0.1565187417816104E+02  0.1557323497853125E+02
  0.1549499088326067E+02  0.1541713990723941E+02  0.1533968007533126E+02  0.1526260942232365E+02  0.1518592599287774E+02
  0.1510962784147884E+02  0.1503371303238708E+02  0.1495817963958821E+02  0.1488302574674482E+02  0.1480824944714770E+02
  0.1473384884366743E+02  0.1465982204870630E+02  0.1458616718415038E+02  0.1451288238132188E+02  0.1443996578093176E+02
  0.1436741553303255E+02  0.1429522979697140E+02  0.1422340674134337E+02  0.1415194454394504E+02  0.1408084139172817E+02
  0.1401009548075380E+02  0.1393970501614639E+02  0.1386966821204842E+02  0.1379998329157490E+02  0.1373064848676844E+02
  0.1366166203855432E+02  0.1359302219669590E+02  0.1352472721975017E+02  0.1345677537502360E+02  0.1338916493852819E+02
  0.1332189419493771E+02  0.1325496143754417E+02  0.1318836496821454E+02  0.1312210309734767E+02  0.1305617414383142E+02
  0.1299057643500000E+02  0.1292530830659154E+02  0.1286036810270584E+02  0.1279575417576242E+02  0.1273146488645867E+02
  0.1266749860372826E+02  0.1260385370469977E+02  0.1254052857465554E+02  0.1247752160699066E+02  0.1241483120317222E+02
  0.1235245577269880E+02  0.1229039373306004E+02  0.1222864350969656E+02  0.1216720353595996E+02  0.1210607225307311E+02
  0.1204524811009059E+02  0.1198472956385933E+02  0.1192451507897947E+02  0.1186460312776541E+02  0.1180499219020705E+02
  0.1174568075393120E+02  0.1168666731416324E+02  0.1162795037368894E+02  0.1156952844281648E+02  0.1151140003933859E+02
  0.1145356368849506E+02  0.1139601792293522E+02  0.1133876128268077E+02  0.1128179231508872E+02  0.1122510957481453E+02
  0.1116871162377545E+02  0.1111259703111403E+02  0.1105676437316182E+02  0.1100121223340326E+02  0.1094593920243971E+02
  0.1089094387795370E+02  0.1083622486467342E+02  0.1078178077433721E+02  0.1072761022565840E+02  0.1067371184429027E+02
  0.1062008426279116E+02  0.1056672612058979E+02  0.1051363606395072E+02  0.1046081274594004E+02  0.1040825482639116E+02
  0.1035596097187083E+02  0.1030392985564527E+02  0.1025216015764660E+02  0.1020065056443924E+02  0.1014939976918663E+02
  0.1009840647161811E+02  0.1004766937799589E+02  0.9997187201082214E+01  0.9946958660106725E+01  0.9896982480733980E+01
  0.9847257395031074E+01  0.9797782141435521E+01  0.9748555464723202E+01  0.9699576115976557E+01  0.9650842852552875E+01
  0.9602354438052746E+01  0.9554109642288727E+01  0.9506107241254130E+01  0.9458346017091920E+01  0.9410824758063866E+01
  0.9363542258519772E+01  0.9316497318866867E+01  0.9269688745539440E+01  0.9223115350968463E+01  0.9176775953551514E+01
  0.9130669377622795E+01  0.9084794453423266E+01  0.9039150017071014E+01  0.8993734910531689E+01  0.8948547981589121E+01
  0.8903588083816095E+01  0.8858854076545260E+01  0.8814344824840179E+01  0.8770059199466532E+01  0.8725996076863476E+01
  0.8682154339115106E+01  0.8638532873922127E+01  0.8595130574573586E+01  0.8551946339918844E+01  0.8508979074339576E+01
  0.8466227687722004E+01  0.8423691095429223E+01  0.8381368218273689E+01  0.8339257982489817E+01  0.8297359319706739E+01
  0.8255671166921200E+01  0.8214192466470582E+01  0.8172922166006044E+01  0.8131859218465838E+01  0.8091002582048727E+01
  0.8050351220187551E+01  0.8009904101522910E+01  0.7969660199877010E+01  0.7929618494227604E+01  0.7889777968682075E+01
  0.7850137612451665E+01  0.7810696419825821E+01  0.7771453390146659E+01  0.7732407527783572E+01  0.7693557842107967E+01
  0.7654903347468099E+01  0.7616443063164099E+01  0.7578176013423024E+01  0.7540101227374119E+01  0.7502217739024179E+01
  0.7464524587233011E+01  0.7427020815689041E+01  0.7389705472885054E+01  0.7352577612094007E+01  0.7315636291345028E+01
  0.7278880573399475E+01  0.7242309525727162E+01  0.7205922220482672E+01  0.7169717734481803E+01  0.7133695149178128E+01
  0.7097853550639668E+01  0.7062192029525693E+01  0.7026709681063642E+01  0.6991405605026118E+01  0.6956278905708049E+01
  0.6921328691903942E+01  0.6886554076885237E+01  0.6851954178377806E+01  0.6817528118539525E+01  0.6783275023937987E+01
  0.6749194025528321E+01  0.6715284258631113E+01  0.6681544862910436E+01  0.6647974982352000E+01  0.6614573765241404E+01
  0.6581340364142498E+01  0.6548273935875842E+01  0.6515373641497312E+01  0.6482638646276740E+01  0.6450068119676726E+01
  0.6417661235331530E+01  0.6385417171026071E+01  0.6353335108675019E+01  0.6321414234302009E+01  0.6289653738018938E+01
  0.6258052814005406E+01  0.6226610660488191E+01  0.6195326479720880E+01  0.6164199477963593E+01  0.6133228865462778E+01
  0.6102413856431143E+01  0.6071753669027657E+01  0.6041247525337681E+01  0.6010894651353158E+01  0.5980694276952927E+01
  0.5950645635883127E+01  0.5920747965737714E+01  0.5891000507939030E+01  0.5861402507718516E+01  0.5831953214097493E+01
  0.5802651879868037E+01  0.5773497761573974E+01  0.5744490119491922E+01  0.5715628217612459E+01  0.5686911323621390E+01
  0.5658338708881073E+01  0.5629909648411869E+01  0.5601623420873655E+01  0.5573479308547444E+01  0.5545476597317093E+01
  0.5517614576651100E+01  0.5489892539584468E+01  0.5462309782700695E+01  0.5434865606113820E+01  0.5407559313450572E+01
  0.5380390211832596E+01  0.5353357611858777E+01  0.5326460827587630E+01  0.5299699176519789E+01  0.5273071979580580E+01
  0.5246578561102672E+01  0.5220218248808817E+01  0.5193990373794666E+01  0.5167894270511662E+01  0.5141929276750037E+01
  0.5116094733621875E+01  0.5090389985544236E+01  0.5064814380222399E+01  0.5039367268633165E+01  0.5014048005008227E+01
  0.4988855946817640E+01  0.4963790454753359E+01  0.4938850892712852E+01  0.4914036627782789E+01  0.4889347030222814E+01
  0.4864781473449400E+01  0.4840339334019749E+01  0.4816019991615797E+01  0.4791822829028285E+01  0.4767747232140890E+01
  0.4743792589914463E+01  0.4719958294371290E+01  0.4696243740579464E+01  0.4672648326637320E+01  0.4649171453657929E+01
  0.4625812525753679E+01  0.4602570950020913E+01  0.4579446136524638E+01  0.4556437498283318E+01  0.4533544451253706E+01
  0.4510766414315778E+01  0.4488102809257704E+01  0.4465553060760908E+01  0.4443116596385176E+01  0.4420792846553850E+01
  0.4398581244539062E+01  0.4376481226447067E+01  0.4354492231203596E+01  0.4332613700539309E+01  0.4310845078975292E+01
  0.4289185813808624E+01  0.4267635355098009E+01  0.4246193155649451E+01  0.4224858671002015E+01  0.4203631359413625E+01
  0.4182510681846940E+01  0.4161496101955278E+01  0.4140587086068592E+01  0.4119783103179533E+01  0.4099083624929527E+01
  0.4078488125594946E+01  0.4057996082073326E+01  0.4037606973869615E+01  0.4017320283082513E+01  0.3997135494390836E+01
  0.3977052095039967E+01  0.3957069574828318E+01  0.3937187426093877E+01  0.3917405143700795E+01  0.3897722225026031E+01
  0.3878138169946029E+01  0.3858652480823470E+01  0.3839264662494055E+01  0.3819974222253349E+01  0.3800780669843661E+01
  0.3781683517440984E+01  0.3762682279641971E+01  0.3743776473450971E+01  0.3724965618267089E+01  0.3706249235871311E+01
  0.3687626850413671E+01  0.3669097988400444E+01  0.3650662178681409E+01  0.3632318952437127E+01  0.3614067843166281E+01
  0.3595908386673058E+01  0.3577840121054544E+01  0.3559862586688189E+01  0.3541975326219300E+01  0.3524177884548569E+01
  0.3506469808819646E+01  0.3488850648406734E+01  0.3471319954902244E+01  0.3453877282104457E+01  0.3436522186005251E+01
  0.3419254224777832E+01  0.3402072958764521E+01  0.3384977950464560E+01  0.3367968764521961E+01  0.3351044967713370E+01
  0.3334206128935987E+01  0.3317451819195478E+01  0.3300781611593953E+01  0.3284195081317947E+01  0.3267691805626439E+01
  0.3251271363838903E+01  0.3234933337323363E+01  0.3218677309484493E+01  0.3202502865751737E+01  0.3186409593567446E+01
  0.3170397082375035E+01  0.3154464923607176E+01  0.3138612710673997E+01  0.3122840038951305E+01  0.3107146505768834E+01
  0.3091531710398494E+01  0.3075995254042669E+01  0.3060536739822487E+01  0.3045155772766145E+01  0.3029851959797223E+01
  0.3014624909723034E+01  0.2999474233222954E+01  0.2984399542836802E+01  0.2969400452953195E+01  0.2954476579797948E+01
  0.2939627541422445E+01  0.2924852957692047E+01  0.2910152450274499E+01  0.2895525642628331E+01  0.2880972159991283E+01
  0.2866491629368718E+01  0.2852083679522050E+01  0.2837747940957162E+01  0.2823484045912835E+01  0.2809291628349166E+01
  0.2795170323936003E+01  0.2781119770041349E+01  0.2767139605719798E+01  0.2753229471700935E+01  0.2739389010377751E+01
  0.2725617865795032E+01  0.2711915683637766E+01  0.2698282111219523E+01  0.2684716797470817E+01  0.2671219392927488E+01
  0.2657789549719034E+01  0.2644426921556964E+01  0.2631131163723108E+01  0.2617901933057934E+01  0.2604738887948820E+01
  0.2591641688318350E+01  0.2578609995612538E+01  0.2565643472789087E+01  0.2552741784305578E+01  0.2539904596107660E+01
  0.2527131575617217E+01  0.2514422391720502E+01  0.2501776714756248E+01  0.2489194216503734E+01  0.2476674570170866E+01
  0.2464217450382164E+01  0.2451822533166780E+01  0.2439489495946427E+01  0.2427218017523331E+01  0.2415007778068079E+01
  0.2402858459107495E+01  0.2390769743512432E+01  0.2378741315485550E+01  0.2366772860549038E+01  0.2354864065532293E+01
  0.2343014618559573E+01  0.2331224209037578E+01  0.2319492527643006E+01  0.2307819266310040E+01  0.2296204118217815E+01
  0.2284646777777793E+01  0.2273146940621130E+01  0.2261704303585952E+01  0.2250318564704597E+01  0.2238989423190783E+01
  0.2227716579426744E+01  0.2216499734950282E+01  0.2205338592441755E+01  0.2194232855711037E+01  0.2183182229684362E+01
  0.2172186420391155E+01  0.2161245134950755E+01  0.2150358081559094E+01  0.2139524969475290E+01  0.2128745509008185E+01
  0.2118019411502794E+01  0.2107346389326693E+01  0.2096726155856324E+01  0.2086158425463218E+01  0.2075642913500159E+01
  0.2065179336287243E+01  0.2054767411097878E+01  0.2044406856144678E+01  0.2034097390565304E+01  0.2023838734408184E+01
  0.2013630608618183E+01  0.2003472735022144E+01  0.1993364836314392E+01  0.1983306636042083E+01  0.1973297858590528E+01
  0.1963338229168368E+01  0.1953427473792695E+01  0.1943565319274057E+01  0.1933751493201365E+01  0.1923985723926718E+01
  0.1914267740550117E+01  0.1904597272904083E+01  0.1894974051538173E+01  0.1885397807703399E+01  0.1875868273336538E+01
  0.1866385181044351E+01  0.1856948264087676E+01  0.1847557256365446E+01  0.1838211892398575E+01  0.1828911907313761E+01
  0.1819657036827151E+01  0.1810447017227947E+01  0.1801281585361857E+01  0.1792160478614467E+01  0.1783083434894498E+01
  0.1774050192616957E+01  0.1765060490686180E+01  0.1756114068478756E+01  0.1747210665826372E+01  0.1738350022998520E+01
  0.1729531880685118E+01  0.1720755979979020E+01  0.1712022062358413E+01  0.1703329869669122E+01  0.1694679144106806E+01
  0.1686069628199054E+01  0.1677501064787369E+01  0.1668973197009077E+01  0.1660485768279110E+01  0.1652038522271718E+01
  0.1643631202902066E+01  0.1635263554307766E+01  0.1626935320830279E+01  0.1618646246996281E+01  0.1610396077498902E+01
  0.1602184557178911E+01  0.1594011431005815E+01  0.1585876444058879E+01  0.1577779341508092E+01  0.1569719868595052E+01
  0.1561697770613800E+01  0.1553712792891590E+01  0.1545764680769620E+01  0.1537853179583703E+01  0.1529978034644917E+01
  0.1522138991220195E+01  0.1514335794512920E+01  0.1506568189643475E+01  0.1498835921629793E+01  0.1491138735367892E+01
  0.1483476375612431E+01  0.1475848586957260E+01  0.1468255113816002E+01  0.1460695700402659E+01  0.1453170090712269E+01
  0.1445678028501607E+01  0.1438219257269941E+01  0.1430793520239892E+01  0.1423400560338341E+01  0.1416040120177475E+01
  0.1408711942035918E+01  0.1401415767840008E+01  0.1394151339145209E+01  0.1386918397117686E+01  0.1379716682516049E+01
  0.1372545935673299E+01  0.1365405896478985E+01  0.1358296304361570E+01  0.1351216898271081E+01  0.1344167416661991E+01
  0.1337147597476433E+01  0.1330157178127675E+01  0.1323195895483989E+01  0.1316263485852832E+01  0.1309359684965444E+01
  0.1302484227961842E+01  0.1295636849376258E+01  0.1288817283123047E+01  0.1282025262483085E+01  0.1275260520090699E+01
  0.1268522787921155E+01  0.1261811797278741E+01  0.1255127278785466E+01  0.1248468962370436E+01  0.1241836577259910E+01
  0.1235229851968111E+01  0.1228648514288798E+01  0.1222092291287660E+01  0.1215560909295564E+01  0.1209054093902718E+01
  0.1202571569953761E+01  0.1196113061543859E+01  0.1189678292015844E+01  0.1183266983958432E+01  0.1176878859205599E+01
  0.1170513638837126E+01  0.1164171043180430E+01  0.1157850791813657E+01  0.1151552603570171E+01  0.1145276196544440E+01
  0.1139021288099421E+01  0.1132787594875474E+01  0.1126574832800892E+01  0.1120382717104098E+01  0.1114210962327591E+01
  0.1108059282343692E+01  0.1101927390372171E+01  0.1095814998999831E+01  0.1089721820202110E+01  0.1083647565366795E+01
  0.1077591945319889E+01  0.1071554670353771E+01  0.1065535450257650E+01  0.1059533994350471E+01  0.1053550011516298E+01
  0.1047583210242285E+01  0.1041633298659324E+01  0.1035699984585436E+01  0.1029782975572004E+01  0.1023881978952949E+01
  0.1017996701896912E+01  0.1012126851462545E+01  0.1006272134657015E+01  0.1000432258497784E+01  0.9946069300777817E+00
  0.9887958566340447E+00  0.9829987456199304E+00  0.9772153047809772E+00  0.9714452422345270E+00  0.9656882665531723E+00
  0.9599440868521495E+00  0.9542124128807373E+00  0.9484929551177625E+00  0.9427854248713119E+00  0.9370895343827040E+00
  0.9314049969348314E+00  0.9257315269649354E+00  0.9200688401819065E+00  0.9144166536881639E+00  0.9087746861062083E+00
  0.9031426577098955E+00  0.8975202905605038E+00  0.8919073086476467E+00  0.8863034380350991E+00  0.8807084070115564E+00
  0.8751219462464013E+00  0.8695437889504869E+00  0.8639736710419724E+00  0.8584113313172441E+00  0.8528565116269136E+00
  0.8473089570569126E+00  0.8417684161146686E+00  0.8362346409203637E+00  0.8307073874032221E+00  0.8251864155028276E+00
  0.8196714893753876E+00  0.8141623776049107E+00  0.8086588534192083E+00  0.8031606949106509E+00  0.7976676852615634E+00
  0.7921796129741517E+00  0.7866962721048416E+00  0.7812174625028614E+00  0.7757429900529376E+00  0.7702726669218934E+00
  0.7648063118089804E+00  0.7593437501997079E+00  0.7538848146229610E+00  0.7484293449111256E+00  0.7429771884629799E+00
  0.7375282005090353E+00  0.7320822443790247E+00  0.7266391917712122E+00  0.7211989230231545E+00  0.7157613273835481E+00
  0.7103263032847594E+00  0.7048937586156275E+00  0.6994636109940794E+00  0.6940357880391174E+00  0.6886102276416733E+00
  0.6831868782338331E+00  0.6777656990558946E+00  0.6723466604207264E+00  0.6669297439748268E+00  0.6615149429555253E+00
  0.6561022624436880E+00  0.6506917196113113E+00  0.6452833439633594E+00  0.6398771775731673E+00  0.6344732753107412E+00
  0.6290717050632493E+00  0.6236725479470137E+00  0.6182758985102513E+00  0.6128818649258707E+00  0.6074905691735458E+00
  0.6021021472103634E+00  0.5967167491292413E+00  0.5913345393044229E+00  0.5859556965232402E+00  0.5805804141034340E+00
  0.5752088999952617E+00  0.5698413768676549E+00  0.5644780821777149E+00  0.5591192682228050E+00  0.5537652021745545E+00
  0.5484161660940826E+00  0.5430724569277962E+00  0.5377343864831002E+00  0.5324022813834443E+00  0.5270764830020942E+00
  0.5217573473741226E+00  0.5164452450860819E+00  0.5111405611429161E+00  0.5058436948116793E+00  0.5005550594417050E+00
  0.4952750822608819E+00  0.4900042041477790E+00  0.4847428793794150E+00  0.4794915753544931E+00  0.4742507722920407E+00
  0.4690209629053844E+00  0.4638026520515407E+00  0.4585963563560875E+00  0.4534026038137214E+00  0.4482219333647242E+00
  0.4430548944476639E+00  0.4379020465287339E+00  0.4327639586081760E+00  0.4276412087043416E+00  0.4225343833160003E+00
  0.4174440768635990E+00  0.4123708911102106E+00  0.4073154345630425E+00  0.4022783218563790E+00  0.3972601731169765E+00
  0.3922616133129127E+00  0.3872832715870540E+00  0.3823257805762703E+00  0.3773897757176743E+00  0.3724758945431489E+00
  0.3675847759635204E+00  0.3627170595437837E+00  0.3578733847707974E+00  0.3530543903149469E+00  0.3482607132872789E+00
  0.3434929884936661E+00  0.3387518476875515E+00  0.3340379188228874E+00  0.3293518253088430E+00  0.3246941852679201E+00
  0.3200656107990661E+00  0.3154667072474062E+00  0.3108980724821868E+00  0.3063602961845214E+00  0.3018539591464909E+00
  0.2973796325831306E+00  0.2929378774588216E+00  0.2885292438295186E+00  0.2841542702022661E+00  0.2798134829133302E+00
  0.2755073955262992E+00  0.2712365082513709E+00  0.2670013073870455E+00  0.2628022647853173E+00  0.2586398373414415E+00
  0.2545144665092297E+00  0.2504265778427813E+00  0.2463765805654573E+00  0.2423648671668414E+00  0.2383918130283178E+00
  0.2344577760778300E+00  0.2305630964743034E+00  0.2267080963220902E+00  0.2228930794157588E+00  0.2191183310153971E+00
  0.2153841176525829E+00  0.2116906869670161E+00  0.2080382675737855E+00  0.2044270689610884E+00  0.2008572814182322E+00
  0.1973290759935524E+00  0.1938426044819148E+00  0.1903979994413102E+00  0.1869953742380347E+00  0.1836348231198413E+00
  0.1803164213164165E+00  0.1770402251664512E+00  0.1738062722705170E+00  0.1706145816689516E+00  0.1674651540438264E+00
  0.1643579719441132E+00  0.1612930000330635E+00  0.1582701853568132E+00  0.1552894576331810E+00  0.1523507295596016E+00
  0.1494538971391292E+00  0.1465988400233999E+00  0.1437854218714662E+00  0.1410134907233600E+00  0.1382828793872992E+00
  0.1355934058393740E+00  0.1329448736346275E+00  0.1303370723283978E+00  0.1277697779068196E+00  0.1252427532254039E+00
  0.1227557484546058E+00  0.1203085015313400E+00  0.1179007386153930E+00  0.1155321745497410E+00  0.1132025133237663E+00
  0.1109114485384366E+00  0.1086586638725141E+00  0.1064438335488955E+00  0.1042666228002341E+00  0.1021266883330078E+00
  0.1000236787892536E+00  0.9795723520520848E-01  0.9592699146613869E-01  0.9393257475669643E-01  0.9197360600613791E-01
  0.9004970032782844E-01  0.8816046745245078E-01  0.8630551215440717E-01  0.8448443467091732E-01  0.8269683111337328E-01
  0.8094229387053135E-01  0.7922041200317029E-01  0.7753077162987898E-01  0.7587295630365792E-01  0.7424654737908477E-01
  0.7265112436978156E-01  0.7108626529600304E-01  0.6955154702215546E-01  0.6804654558410959E-01  0.6657083650619491E-01
  0.6512399510778061E-01  0.6370559679939126E-01  0.6231521736831339E-01  0.6095243325369104E-01  0.5961682181110793E-01
  0.5830796156670442E-01  0.5702543246086916E-01  0.5576881608158228E-01  0.5453769588750184E-01  0.5333165742089188E-01
  0.5215028851052208E-01  0.5099317946466424E-01  0.4985992325434497E-01  0.4875011568700256E-01  0.4766335557072682E-01
  0.4659924486926194E-01  0.4555738884795506E-01  0.4453739621085612E-01  0.4353887922916505E-01  0.4256145386124083E-01
  0.4160473986438642E-01  0.4066836089862263E-01  0.3975194462268622E-01  0.3885512278246081E-01  0.3797753129208250E-01
  0.3711881030793891E-01  0.3627860429579680E-01  0.3545656209128357E-01  0.3465233695395589E-01  0.3386558661518015E-01
  0.3309597332005332E-01  0.3234316386359222E-01  0.3160682962140617E-01  0.3088664657508585E-01  0.3018229533251312E-01
  0.2949346114331684E-01  0.2881983390967977E-01  0.2816110819270575E-01  0.2751698321455216E-01  0.2688716285652433E-01
  0.2627135565333014E-01  0.2566927478368262E-01  0.2508063805744049E-01  0.2450516789946271E-01  0.2394259133036186E-01
  0.2339263994431971E-01  0.2285504988413848E-01  0.2232956181368827E-01  0.2181592088790619E-01  0.2131387672050334E-01
  0.2082318334952288E-01  0.2034359920089633E-01  0.1987488705013211E-01  0.1941681398227101E-01  0.1896915135023734E-01
  0.1853167473170736E-01  0.1810416388461553E-01  0.1768640270141107E-01  0.1727817916217604E-01  0.1687928528670877E-01
  0.1648951708567355E-01  0.1610867451091487E-01  0.1573656140502450E-01  0.1537298545025530E-01  0.1501775811685973E-01
  0.1467069461093881E-01  0.1433161382187422E-01  0.1400033826941861E-01  0.1367669405051236E-01  0.1336051078589228E-01
  0.1305162156655621E-01  0.1274986290014018E-01  0.1245507465726684E-01  0.1216710001791506E-01  0.1188578541786352E-01
  0.1161098049525325E-01  0.1134253803731402E-01  0.1108031392729703E-01  0.1082416709165127E-01  0.1057395944748219E-01
  0.1032955585032474E-01  0.1009082404226515E-01  0.9857634600438203E-02  0.9629860885931431E-02  0.9407378993118078E-02
  0.9190067699445083E-02  0.8977808415697461E-02  0.8770485136758254E-02  0.8567984392883863E-02  0.8370195201510359E-02
  0.8177009019607131E-02  0.7988319696590978E-02  0.7804023427813033E-02  0.7624018708630580E-02  0.7448206289072281E-02
  0.7276489129106807E-02  0.7108772354521050E-02  0.6944963213415803E-02  0.6784971033322920E-02  0.6628707178949562E-02
  0.6476085010552540E-02  0.6327019842944951E-02  0.6181428905138660E-02  0.6039231300621321E-02  0.5900347968270607E-02
  0.5764701643903721E-02  0.5632216822462273E-02  0.5502819720830358E-02  0.5376438241283991E-02  0.5253001935569510E-02
  0.5132441969607235E-02  0.5014691088817664E-02  0.4899683584065105E-02  0.4787355258215846E-02  0.4677643393304542E-02
  0.4570486718304887E-02  0.4465825377498810E-02  0.4363600899438280E-02  0.4263756166494317E-02  0.4166235384986430E-02
  0.4070984055886713E-02  0.3977948946091383E-02  0.3887078060253726E-02  0.3798320613170710E-02  0.3711627002716874E-02
  0.3626948783318119E-02  0.3544238639957808E-02  0.3463450362708329E-02  0.3384538821780066E-02  0.3307459943080797E-02
  0.3232170684277564E-02  0.3158629011353312E-02  0.3086793875651304E-02  0.3016625191398534E-02  0.2948083813701556E-02
  0.2881131517006198E-02  0.2815730974014006E-02  0.2751845735047371E-02  0.2689440207855962E-02  0.2628479637856672E-02
  0.2568930088799445E-02  0.2510758423851746E-02  0.2453932287093611E-02  0.2398420085416452E-02  0.2344190970817705E-02
  0.2291214823084305E-02  0.2239462232857571E-02  0.2188904485072269E-02  0.2139513542762901E-02  0.2091262031229877E-02
  0.2044123222558974E-02  0.1998071020486640E-02  0.1953079945605033E-02  0.1909125120899332E-02  0.1866182257611206E-02
  0.1824227641421665E-02  0.1783238118946793E-02  0.1743191084540131E-02  0.1704064467395244E-02  0.1665836718942456E-02
  0.1628486800533488E-02  0.1591994171408168E-02  0.1556338776937083E-02  0.1521501037134543E-02  0.1487461835436086E-02
  0.1454202507734795E-02  0.1421704831671049E-02  0.1389951016170093E-02  0.1358923691222267E-02  0.1328605897900494E-02
  0.1298981078609865E-02  0.1270033067564458E-02  0.1241746081486075E-02  0.1214104710520356E-02  0.1187093909365205E-02
  0.1160698988607039E-02  0.1134905606260036E-02  0.1109699759504077E-02  0.1085067776616744E-02  0.1060996309095126E-02
  0.1037472323963218E-02  0.1014483096260498E-02  0.9920162017079545E-03  0.9700595095471257E-03  0.9486011755485768E-03
  0.9276296351857265E-03  0.9071335969703304E-03  0.8871020359459531E-03  0.8675241873357132E-03  0.8483895403408639E-03
  0.8296878320866235E-03  0.8114090417119819E-03  0.7935433846000110E-03  0.7760813067455420E-03  0.7590134792569970E-03
  0.7423307929891711E-03  0.7260243533040607E-03  0.7100854749565990E-03  0.6945056771025090E-03  0.6792766784253216E-03
  0.6643903923798283E-03  0.6498389225492138E-03  0.6356145581131613E-03  0.6217097694244069E-03  0.6081172036910862E-03
  0.5948296807624677E-03  0.5818401890155497E-03  0.5691418813402097E-03  0.5567280712205191E-03  0.5445922289099544E-03
  0.5327279776983368E-03  0.5211290902681935E-03  0.5097894851385738E-03  0.4987032231940974E-03  0.4878645042973129E-03
  0.4772676639822990E-03  0.4669071702276360E-03  0.4567776203068103E-03  0.4468737377142030E-03  0.4371903691649086E-03
  0.4277224816665166E-03  0.4184651596612655E-03  0.4094136022367405E-03  0.4005631204036004E-03  0.3919091344386345E-03
  0.3834471712916235E-03  0.3751728620544797E-03  0.3670819394911283E-03  0.3591702356267276E-03  0.3514336793947392E-03
  0.3438682943405241E-03  0.3364701963800307E-03  0.3292355916123090E-03  0.3221607741845318E-03  0.3152421242082433E-03
  0.3084761057256295E-03  0.3018592647245769E-03  0.2953882272013687E-03  0.2890596972698385E-03  0.2828704553158970E-03
  0.2768173561963098E-03  0.2708973274806531E-03  0.2651073677354428E-03  0.2594445448493707E-03  0.2539059943986936E-03
  0.2484889180517744E-03  0.2431905820118597E-03  0.2380083154971418E-03  0.2329395092572185E-03  0.2279816141250811E-03
  0.2231321396037332E-03  0.2183886524866673E-03  0.2137487755113034E-03  0.2092101860446637E-03  0.2047706148004536E-03
  0.2004278445868203E-03  0.1961797090840292E-03  0.1920240916513429E-03  0.1879589241624010E-03  0.1839821858683947E-03
  0.1800919022883942E-03  0.1762861441261308E-03  0.1725630262126396E-03  0.1689207064741037E-03  0.1653573849243041E-03
  0.1618713026810871E-03  0.1584607410062509E-03  0.1551240203683083E-03  0.1518594995275477E-03  0.1486655746428841E-03
  0.1455406783999395E-03  0.1424832791598685E-03  0.1394918801284177E-03  0.1365650185447233E-03  0.1337012648893874E-03
  0.1308992221113475E-03  0.1281575248731087E-03  0.1254748388138706E-03  0.1228498598301428E-03  0.1202813133734083E-03
  0.1177679537644290E-03  0.1153085635238019E-03  0.1129019527183586E-03  0.1105469583230422E-03  0.1082424435978737E-03
  0.1059872974796604E-03  0.1037804339880783E-03  0.1016207916457885E-03  0.9950733291225566E-04  0.9743904363092137E-04
  0.9541493248943893E-04  0.9343403049262431E-04  0.9149539044784577E-04  0.8959808646253276E-04  0.8774121345352817E-04
  0.8592388666798859E-04  0.8414524121556098E-04  0.8240443161156789E-04  0.8070063133092810E-04  0.7903303237256908E-04
  0.7740084483406096E-04  0.7580329649625197E-04  0.7423963241764097E-04  0.7270911453826998E-04  0.7121102129290617E-04
  0.6974464723328512E-04  0.6830930265920713E-04  0.6690431325826705E-04  0.6552901975402004E-04  0.6418277756237064E-04
  0.6286495645600320E-04  0.6157494023664735E-04  0.6031212641500013E-04  0.5907592589812376E-04  0.5786576268413210E-04
  0.5668107356400247E-04  0.5552130783033501E-04  0.5438592699289939E-04  0.5327440450080649E-04  0.5218622547114173E-04
  0.5112088642391958E-04  0.5007789502319221E-04  0.4905676982418171E-04  0.4805704002628103E-04  0.4707824523179343E-04
  0.4611993521026642E-04  0.4518166966829417E-04  0.4426301802465512E-04  0.4336355919065841E-04  0.4248288135557940E-04
  0.4162058177705737E-04  0.4077626657634573E-04  0.3994955053829280E-04  0.3914005691594786E-04  0.3834741723967757E-04
  0.3757127113068960E-04  0.3681126611885972E-04  0.3606705746475780E-04  0.3533830798577839E-04  0.3462468788627241E-04
  0.3392587459159518E-04  0.3324155258596854E-04  0.3257141325407375E-04  0.3191515472628665E-04  0.3127248172746638E-04
  0.3064310542921857E-04  0.3002674330554638E-04  0.2942311899181551E-04  0.2883196214694970E-04  0.2825300831878645E-04
  0.2768599881251372E-04  0.2713068056211909E-04  0.2658680600478035E-04  0.2605413295812609E-04  0.2553242450030339E-04
  0.2502144885278227E-04  0.2452097926583700E-04  0.2403079390664024E-04  0.2355067574990621E-04  0.2308041247103019E-04
  0.2261979634165809E-04  0.2216862412763609E-04  0.2172669698928036E-04  0.2129382038391597E-04  0.2086980397062990E-04
  0.2045446151718796E-04  0.2004761080906509E-04  0.1964907356053927E-04  0.1925867532780287E-04  0.1887624542404090E-04
  0.1850161683643641E-04  0.1813462614505146E-04  0.1777511344354641E-04  0.1742292226169060E-04  0.1707789948962494E-04
  0.1673989530383595E-04  0.1640876309480033E-04  0.1608435939626322E-04  0.1576654381611052E-04  0.1545517896880065E-04
  0.1515013040931724E-04  0.1485126656860973E-04  0.1455845869048685E-04  0.1427158076992891E-04  0.1399050949278758E-04
  0.1371512417683944E-04  0.1344530671416412E-04  0.1318094151481484E-04  0.1292191545175271E-04  0.1266811780701568E-04
  0.1241944021909282E-04  0.1217577663147791E-04  0.1193702324237366E-04  0.1170307845552159E-04  0.1147384283213037E-04
  0.1124921904387902E-04  0.1102911182696897E-04  0.1081342793720163E-04  0.1060207610605878E-04  0.1039496699776063E-04
  0.1019201316728232E-04  0.9993129019303947E-05  0.9798230768075166E-05  0.9607236398172172E-05  0.9420065626126994E-05
  0.9236639862909876E-05  0.9056882177244128E-05  0.8880717259736137E-05  0.8708071387799769E-05  0.8538872391360041E-05
  0.8373049619315139E-05  0.8210533906742325E-05  0.8051257542829180E-05  0.7895154239514266E-05  0.7742159100821366E-05
  0.7592208592871060E-05  0.7445240514554845E-05  0.7301193968856296E-05  0.7160009334805246E-05  0.7021628240049972E-05
  0.6885993534033899E-05  0.6753049261763287E-05  0.6622740638151900E-05  0.6495014022930616E-05  0.6369816896108178E-05
  0.6247097833971642E-05  0.6126806485613627E-05  0.6008893549975017E-05  0.5893310753391363E-05  0.5780010827631195E-05
  0.5668947488416332E-05  0.5560075414411979E-05  0.5453350226677256E-05  0.5348728468564956E-05  0.5246167586061123E-05
  0.5145625908554100E-05  0.5047062630023662E-05  0.4950437790641043E-05  0.4855712258769884E-05  0.4762847713360457E-05
  0.4671806626726839E-05  0.4582552247699758E-05  0.4495048585146018E-05  0.4409260391846511E-05  0.4325153148724962E-05
  0.4242693049419266E-05  0.4161846985188268E-05  0.4082582530145862E-05  0.4004867926815988E-05  0.3928672072000286E-05
  0.3853964502952776E-05  0.3780715383853478E-05  0.3708895492575184E-05  0.3638476207736592E-05  0.3569429496035349E-05
  0.3501727899855061E-05  0.3435344525139876E-05  0.3370253029531082E-05  0.3306427610759617E-05  0.3243842995288914E-05
  0.3182474427202726E-05  0.3122297657332247E-05  0.3063288932617446E-05  0.3005424985697322E-05  0.2948683024724171E-05
  0.2893040723396725E-05  0.2838476211207539E-05  0.2784968063899872E-05  0.2732495294129201E-05  0.2681037342325361E-05
  0.2630574067750339E-05  0.2581085739747947E-05  0.2532553029180675E-05  0.2484957000050041E-05  0.2438279101296131E-05
  0.2392501158772466E-05  0.2347605367392533E-05  0.2303574283443801E-05  0.2260390817066181E-05  0.2218038224890596E-05
  0.2176500102834871E-05  0.2135760379052968E-05  0.2095803307034492E-05  0.2056613458851126E-05  0.2018175718546771E-05
  0.1980475275668292E-05  0.1943497618933693E-05  0.1907228530034991E-05  0.1871654077572523E-05  0.1836760611118049E-05
  0.1802534755403804E-05  0.1768963404634668E-05  0.1736033716921058E-05  0.1703733108829383E-05  0.1672049250048205E-05
  0.1640970058166992E-05  0.1610483693565387E-05  0.1580578554410449E-05  0.1551243271759521E-05  0.1522466704766576E-05
  0.1494237935989620E-05  0.1466546266797085E-05  0.1439381212870997E-05  0.1412732499805006E-05  0.1386590058794883E-05
  0.1360944022419912E-05  0.1335784720512874E-05  0.1311102676116916E-05  0.1286888601527334E-05  0.1263133394416454E-05
  0.1239828134039922E-05  0.1216964077522495E-05  0.1194532656221732E-05  0.1172525472167883E-05  0.1150934294578339E-05
  0.1129751056445042E-05  0.1108967851193266E-05  0.1088576929410345E-05  0.1068570695642658E-05  0.1048941705259620E-05
  0.1029682661383050E-05  0.1010786411880709E-05  0.9922459464225075E-06  0.9740543935979908E-06  0.9562050180940302E-06
  0.9386912179311590E-06  0.9215065217574993E-06  0.9046445861989121E-06  0.8880991932643261E-06  0.8718642478049035E-06
  0.8559337750260190E-06  0.8403019180508739E-06  0.8249629355346320E-06  0.8099111993281231E-06  0.7951411921898122E-06
  0.7806475055453219E-06  0.7664248372932432E-06  0.7524679896563905E-06  0.7387718670774905E-06  0.7253314741583537E-06
  0.7121419136416720E-06  0.6991983844344473E-06  0.6864961796722384E-06  0.6740306848233116E-06  0.6617973758319626E-06
  0.6497918172999899E-06  0.6380096607056907E-06  0.6264466426595353E-06  0.6150985831956878E-06  0.6039613840986928E-06
  0.5930310272645333E-06  0.5823035730953953E-06  0.5717751589273792E-06  0.5614419974904361E-06  0.5513003753999817E-06
  0.5413466516793603E-06  0.5315772563126286E-06  0.5219886888269539E-06  0.5125775169040639E-06  0.5033403750200756E-06
  0.4942739631131603E-06  0.4853750452784314E-06  0.4766404484895006E-06  0.4680670613461380E-06  0.4596518328474773E-06
  0.4513917711902770E-06  0.4432839425916488E-06  0.4353254701357975E-06  0.4275135326442395E-06  0.4198453635690128E-06
  0.4123182499084501E-06  0.4049295311449233E-06  0.3976765982042597E-06  0.3905568924362477E-06  0.3835679046158601E-06
  0.3767071739647557E-06  0.3699722871926031E-06  0.3633608775578825E-06  0.3568706239476853E-06  0.3504992499761664E-06
  0.3442445231012366E-06  0.3381042537591626E-06  0.3320762945166106E-06  0.3261585392398882E-06  0.3203489222809336E-06
  0.3146454176797585E-06  0.3090460383829876E-06  0.3035488354781484E-06  0.2981518974434300E-06  0.2928533494125304E-06
  0.2876513524543313E-06  0.2825441028670669E-06  0.2775298314867043E-06  0.2726068030092252E-06  0.2677733153265339E-06
  0.2630276988757200E-06  0.2583683160013746E-06  0.2537935603307190E-06  0.2493018561612556E-06  0.2448916578607205E-06
  0.2405614492790488E-06  0.2363097431721095E-06  0.2321350806370091E-06  0.2280360305586708E-06  0.2240111890674973E-06
  0.2200591790078676E-06  0.2161786494172693E-06  0.2123682750158223E-06  0.2086267557059994E-06  0.2049528160823311E-06
  0.2013452049508772E-06  0.1978026948583081E-06  0.1943240816303254E-06  0.1909081839193155E-06  0.1875538427609842E-06
  0.1842599211398197E-06  0.1810253035631983E-06  0.1778488956439474E-06  0.1747296236912169E-06  0.1716664343094590E-06
  0.1686582940053780E-06  0.1657041888026656E-06  0.1628031238643962E-06  0.1599541231228816E-06  0.1571562289168698E-06
  0.1544085016359322E-06  0.1517100193718773E-06  0.1490598775770672E-06  0.1464571887294814E-06  0.1439010820044101E-06
  0.1413907029526270E-06  0.1389252131849060E-06  0.1365037900627815E-06  0.1341256263953942E-06  0.1317899301423173E-06
  0.1294959241222356E-06  0.1272428457273691E-06  0.1250299466435095E-06  0.1228564925755701E-06  0.1207217629785317E-06
  0.1186250507936737E-06  0.1165656621899989E-06  0.1145429163107181E-06  0.1125561450247276E-06  0.1106046926829531E-06
  0.1086879158794732E-06  0.1068051832173273E-06  0.1049558750789060E-06  0.1031393834008456E-06  0.1013551114533215E-06
  0.9960247362366213E-07  0.9788089520419099E-07  0.9618981218422368E-07  0.9452867104611374E-07  0.9289692856529521E-07
  0.9129405161421862E-07  0.8971951697011502E-07  0.8817281112650738E-07  0.8665343010839327E-07  0.8516087929103340E-07
  0.8369467322226131E-07  0.8225433544825620E-07  0.8083939834270089E-07  0.7944940293926527E-07  0.7808389876734172E-07
  0.7674244369097167E-07  0.7542460375090260E-07  0.7412995300970581E-07  0.7285807339990077E-07  0.7160855457502324E-07
  0.7038099376357774E-07  0.6917499562582533E-07  0.6799017211333308E-07  0.6682614233125213E-07  0.6568253240325319E-07
  0.6455897533907546E-07  0.6345511090463328E-07  0.6237058549463499E-07  0.6130505200765742E-07  0.6025816972363306E-07
  0.5922960418369945E-07  0.5821902707236529E-07  0.5722611610194735E-07  0.5625055489923121E-07  0.5529203289431866E-07
  0.5435024521160855E-07  0.5342489256287795E-07  0.5251568114241815E-07  0.5162232252418367E-07  0.5074453356092218E-07
   42     95.940         3.8581    fcc     
  0.0000000000000000E+00 -0.3492797111028567E-01 -0.6963105723524388E-01 -0.1041109898805037E+00 -0.1383685005516977E+00
 -0.1724043207544539E+00 -0.2062191819944057E+00 -0.2398138157771843E+00 -0.2731889536084182E+00 -0.3063453269937395E+00
 -0.3392836674387802E+00 -0.3720047064491676E+00 -0.4045091755305359E+00 -0.4367978061885136E+00 -0.4688713299287328E+00
 -0.5007304782568247E+00 -0.5323759826784187E+00 -0.5638085746991477E+00 -0.5950289858246394E+00 -0.6260379475605258E+00
 -0.6568361914124394E+00 -0.6874244488860093E+00 -0.7178034514868661E+00 -0.7479739307206423E+00 -0.7779366180929665E+00
 -0.8076922451094712E+00 -0.8372415432757880E+00 -0.8665852440975437E+00 -0.8957240790803733E+00 -0.9246587797299051E+00
 -0.9533900775517705E+00 -0.9819187040516018E+00 -0.1010245390735027E+01 -0.1038370869107681E+01 -0.1066295870675190E+01
 -0.1094021126943187E+01 -0.1121547369417303E+01 -0.1148875329603168E+01 -0.1176005739006413E+01 -0.1202939329132669E+01
 -0.1229676831487567E+01 -0.1256218977576738E+01 -0.1282566498905813E+01 -0.1308720126980421E+01 -0.1334680593306194E+01
 -0.1360448629388763E+01 -0.1386024966733759E+01 -0.1411410336846811E+01 -0.1436605471233551E+01 -0.1461611101399612E+01
 -0.1486427958850621E+01 -0.1511056775092211E+01 -0.1535498281630012E+01 -0.1559753209969656E+01 -0.1583822291616771E+01
 -0.1607706258076991E+01 -0.1631405840855946E+01 -0.1654921771459265E+01 -0.1678254781392581E+01 -0.1701405602161523E+01
 -0.1724374965271723E+01 -0.1747163602228811E+01 -0.1769772244538419E+01 -0.1792201623706177E+01 -0.1814452471237715E+01
 -0.1836525518638665E+01 -0.1858421497414657E+01 -0.1880141139071323E+01 -0.1901685175114292E+01 -0.1923054337049196E+01
 -0.1944249356381665E+01 -0.1965270964617332E+01 -0.1986119893261824E+01 -0.2006796873820776E+01 -0.2027302637799816E+01
 -0.2047637916704575E+01 -0.2067803442040685E+01 -0.2087799945313775E+01 -0.2107628158029478E+01 -0.2127288811693422E+01
 -0.2146782637811242E+01 -0.2166110367888565E+01 -0.2185272733431022E+01 -0.2204270465944246E+01 -0.2223104296933866E+01
 -0.2241774957905514E+01 -0.2260283180364819E+01 -0.2278629695817415E+01 -0.2296815235768929E+01 -0.2314840531724995E+01
 -0.2332706315191242E+01 -0.2350413317673301E+01 -0.2367962270676803E+01 -0.2385353905707378E+01 -0.2402588954270659E+01
 -0.2419668147872274E+01 -0.2436592218017856E+01 -0.2453361896213034E+01 -0.2469977913963440E+01 -0.2486441002774705E+01
 -0.2502751894152459E+01 -0.2518911319602334E+01 -0.2534920010629958E+01 -0.2550778698740965E+01 -0.2566488115440984E+01
 -0.2582048992235647E+01 -0.2597462060630583E+01 -0.2612728052131425E+01 -0.2627847698243801E+01 -0.2642821730473345E+01
